//Numpy array shape [128]
//Min -2.304687500000
//Max 3.843750000000
//Number of zeros 1

#ifndef B22_H_
#define B22_H_

#ifndef __SYNTHESIS__
bias22_t b22[128];
#else
bias22_t b22[128] = {1.3203125, 0.0546875, 0.3906250, -0.0390625, 0.2343750, 0.3515625, 0.2343750, 0.2109375, -2.3046875, -0.3750000, -0.3593750, -0.4218750, 0.5781250, 0.1015625, 0.3437500, 0.2734375, 0.3593750, 0.1953125, 0.0468750, 1.8750000, 3.8437500, 0.2031250, 0.6015625, 0.2265625, 0.3515625, 1.2421875, 2.7500000, 0.4140625, 0.2031250, -0.2812500, 0.0468750, 0.4140625, 0.2343750, 0.5078125, -0.3750000, -0.1406250, 1.0937500, 0.2187500, -0.2656250, 0.1953125, 0.3437500, 0.1171875, 1.6484375, -0.0390625, 0.0859375, 0.1250000, 2.1796875, 0.5234375, 0.2109375, 1.3203125, 0.4531250, 0.9843750, 0.2578125, -0.2421875, 0.1484375, 0.2343750, 0.3750000, -0.1796875, 0.3593750, -0.0781250, -0.3828125, 0.2109375, 0.4062500, 0.1406250, 0.2500000, -0.2734375, 0.1406250, -0.2968750, -0.4062500, 0.1796875, 0.0859375, 0.2968750, 0.6484375, 0.9609375, 0.6718750, 0.0859375, 0.2109375, 0.2656250, 0.2578125, 0.6015625, 0.2031250, 0.6953125, 0.1562500, 0.2187500, 0.1953125, -0.5546875, -0.5312500, 0.2343750, 0.4218750, 0.3046875, 0.0937500, 0.0000000, 0.2031250, 0.3281250, 0.1718750, 0.1484375, 0.2734375, -0.3203125, 0.9375000, -0.2578125, 0.6796875, -0.3593750, 0.1406250, 0.3281250, -0.0390625, 0.3203125, 0.4062500, 0.2109375, 0.2031250, 0.1015625, 0.2734375, 1.0234375, 0.1953125, 0.3359375, -0.4296875, -0.6328125, 0.3046875, 2.1875000, 0.6093750, -1.8203125, 0.4765625, 0.2812500, 0.2578125, 0.3281250, 0.3750000, 0.0156250, 0.1328125, 0.2890625};
#endif

#endif
