//Numpy array shape [256]
//Min -2.421875000000
//Max 3.000000000000
//Number of zeros 2

#ifndef B29_H_
#define B29_H_

#ifndef __SYNTHESIS__
bias29_t b29[256];
#else
bias29_t b29[256] = {-0.4296875, 0.2421875, 0.3828125, 0.1171875, -0.0312500, -0.3125000, 0.5000000, -0.7343750, 0.2578125, 0.1015625, -0.9296875, 0.3203125, 0.4375000, -1.0468750, -0.5859375, -0.2109375, 0.0703125, 0.9531250, -0.3437500, 0.6171875, -1.0468750, -0.2968750, 0.2734375, 0.1093750, 0.7812500, -0.8437500, 0.8906250, -0.6328125, 0.9453125, 0.4453125, -0.2500000, 1.3828125, 1.3671875, -1.1250000, 0.5234375, 0.4375000, -0.6171875, -0.8593750, -0.4687500, -0.5078125, -0.7187500, 0.3203125, -0.6093750, 0.3828125, 0.2812500, 1.3750000, 0.1406250, 1.1640625, 0.2500000, 0.6875000, 1.4687500, 0.1250000, -0.2500000, -0.2031250, 1.5234375, 0.1718750, 0.7500000, -0.8671875, -0.3281250, 0.3437500, -1.0234375, -0.3750000, 0.9062500, -0.2578125, -0.6953125, -0.2109375, 1.3593750, 0.3750000, -0.3906250, 0.8125000, -0.5937500, 0.8046875, -0.0546875, -0.0546875, -0.2734375, -0.6484375, 0.6171875, 0.6640625, -0.3515625, -0.6875000, 0.6796875, 0.9843750, -0.6250000, 0.7656250, 1.6718750, 0.8671875, -0.0312500, -0.7031250, 1.1406250, -0.3593750, 2.1093750, -0.6093750, 0.0781250, -0.9218750, -0.0859375, 0.5390625, 0.5859375, -0.8671875, 0.6406250, -0.7187500, -0.0390625, 0.4609375, 0.9062500, -0.8828125, -0.3906250, 0.9218750, -1.0937500, -1.2968750, 0.1250000, 0.1718750, -0.6171875, 0.7890625, -1.1640625, 0.1250000, 0.0937500, 0.6875000, -0.0781250, 0.2812500, 0.5000000, -0.1640625, -0.6796875, -1.2343750, 0.6562500, -0.8828125, 1.0000000, 0.9375000, -0.5625000, -0.5390625, -0.0781250, 0.3593750, -0.3281250, 0.2812500, -0.5468750, -0.9218750, -0.3281250, 0.3593750, -1.0234375, -0.4218750, 1.1640625, -0.1328125, -0.0625000, 1.5390625, -0.4453125, -0.6015625, 0.8203125, 0.0000000, 0.1796875, 1.3281250, -0.3906250, -0.1171875, -0.0156250, 0.3906250, -0.1484375, 0.3984375, 0.5000000, 0.1562500, 1.3359375, -1.1796875, -0.5703125, -0.8359375, -0.8906250, -0.4218750, 0.2343750, 2.5937500, 0.2031250, 0.5703125, 0.6953125, 0.9375000, -0.8671875, 0.9765625, 1.6562500, 1.0000000, -0.1328125, -0.8437500, 0.6250000, 0.0937500, -0.8203125, 0.3125000, 2.1171875, 0.6328125, -0.1406250, -0.2343750, 0.3515625, 0.1562500, 0.0000000, 0.0234375, 0.2421875, -0.6718750, -0.4687500, -0.6640625, -0.8046875, -1.0390625, 1.2109375, -0.5703125, 0.0937500, 0.8984375, -1.2500000, 3.0000000, -0.1093750, -0.6718750, 0.2968750, -0.2421875, 0.5468750, -0.5390625, -0.0859375, 0.3750000, -0.7265625, 0.0859375, -0.7187500, 0.2578125, 0.2734375, 0.1171875, 1.6953125, 0.7265625, -1.0234375, -0.5703125, -2.4218750, 0.0312500, 0.7265625, -1.4062500, -0.5703125, -0.9140625, 1.4531250, -0.8515625, -1.0468750, -0.8671875, 0.1093750, 0.1562500, 0.9843750, -0.3046875, 2.0781250, 0.8203125, -1.0468750, -0.3593750, -0.2812500, -0.9843750, -0.1250000, 0.6328125, -0.6718750, -0.9843750, 0.4140625, 0.1171875, -0.6484375, 0.0546875, 1.3125000, 0.3906250, 1.0781250, 0.0546875, 0.2031250, 0.6640625, 1.8046875, 0.1796875, 0.5468750, 0.6953125, -0.7656250, 0.4921875};
#endif

#endif
