//Numpy array shape [256]
//Min -6.320312500000
//Max 7.343750000000
//Number of zeros 0

#ifndef B36_H_
#define B36_H_

#ifndef __SYNTHESIS__
bias36_t b36[256];
#else
bias36_t b36[256] = {-0.5000000, 0.0468750, 0.4140625, -0.6328125, -0.5234375, 0.4843750, -0.1718750, -0.6796875, 0.2968750, -2.0312500, 1.6328125, -0.2656250, -1.2031250, 2.1093750, 0.8125000, -0.5937500, 0.0390625, 0.1406250, 0.2812500, 0.0546875, -0.2031250, -0.2734375, -0.2109375, 1.6093750, 0.2812500, 1.3750000, -0.2109375, -0.0703125, -0.3906250, 0.2656250, -3.0859375, -1.8671875, -0.2500000, 3.7500000, 0.2890625, -2.5703125, 0.4140625, -0.3671875, 0.6328125, -0.3671875, -0.0156250, 1.1015625, 1.4140625, 1.8593750, -0.1875000, 0.4218750, -0.8828125, -1.5312500, -0.1406250, 1.0390625, -3.0468750, -0.3750000, -0.3437500, -1.3281250, -0.1171875, -3.4218750, -0.2734375, -0.4531250, -0.1796875, -1.5390625, 1.6171875, -0.1093750, -1.1406250, -0.1562500, 0.3437500, 0.6562500, 0.2187500, -0.7109375, -1.4609375, 0.9453125, -0.7031250, -0.0625000, -3.6406250, -0.5078125, 1.4453125, -3.8828125, -0.5000000, -0.3437500, -3.5859375, -0.2265625, -4.7421875, -0.2890625, 0.5937500, 0.1796875, 1.5390625, -1.5703125, -1.4843750, 0.3984375, 0.0625000, -0.1953125, -0.1328125, -0.1406250, -1.2812500, 0.2187500, -0.1015625, 0.3671875, -0.2265625, -0.8046875, -1.1328125, -1.6953125, -0.1562500, -0.9140625, -3.1406250, 0.9765625, 0.2421875, -0.2109375, -1.8750000, -2.7109375, 0.8906250, 0.8046875, 0.2109375, -0.8671875, -0.2187500, 2.3281250, 1.8984375, 1.1718750, -2.1640625, 0.3906250, -1.5234375, 0.0703125, 0.7578125, -5.2656250, 1.8906250, -1.8203125, -1.4375000, 0.7265625, -0.0234375, 0.9296875, -0.1015625, 0.2031250, 1.4062500, -0.0156250, -0.2265625, -1.9765625, -0.0703125, -1.9609375, -0.2421875, -0.0859375, 0.4062500, 1.6328125, 0.1015625, -0.1953125, -0.7031250, 1.3671875, -0.0781250, -1.5000000, 0.0390625, 0.4609375, 2.0156250, -3.1953125, -0.1796875, 0.8203125, -0.2187500, -0.2421875, -0.2109375, 2.7890625, -0.0156250, -1.7812500, -2.4609375, 1.3125000, 1.9921875, -0.1718750, 1.5234375, 2.4843750, 0.0312500, 1.1953125, -0.2578125, -4.5234375, -2.4218750, 0.3906250, 3.8515625, 1.3828125, -0.4921875, -0.1250000, -0.3125000, 1.5859375, 0.0937500, -4.8750000, 1.9921875, -0.0468750, 1.5234375, -0.6640625, -0.9687500, 3.9453125, 1.2812500, -0.8359375, 0.1015625, 0.4843750, 0.4531250, 0.8203125, 0.2812500, -0.2578125, -0.4531250, 1.7578125, 1.8281250, -1.3593750, 0.5546875, -0.0625000, -2.5234375, 1.9921875, 0.0625000, -0.3437500, -0.1406250, 2.0312500, -0.8281250, 5.0781250, -3.2968750, -1.0937500, -0.0937500, -0.2578125, -0.0937500, -2.4609375, 0.7578125, 0.1093750, 0.0078125, -6.3203125, -0.7031250, 1.7656250, -0.4375000, -0.1250000, 1.0312500, -0.4140625, -0.2656250, -0.5937500, -0.4140625, -0.5312500, -0.2812500, 1.0859375, -0.1875000, -1.7109375, 2.7421875, 3.3671875, 0.5234375, 7.3437500, -0.0937500, 0.0312500, 0.5156250, 1.0468750, -0.6406250, -3.9062500, 1.1171875, 0.4531250, 0.0468750, 2.9687500, -0.2734375, 1.3906250, -0.3593750, -0.1093750, 2.4296875, 1.6250000, 0.1796875, 0.0937500, 1.5859375, -1.2343750, 0.9140625, 0.0937500};
#endif

#endif
