//Numpy array shape [3, 3, 128, 128]
//Min -0.359375000000
//Max 0.218750000000
//Number of zeros 32064

#ifndef W25_H_
#define W25_H_

#ifndef __SYNTHESIS__
weight25_t w25[147456];
#else
weight25_t w25[147456] = {-0.0078125, 0.0078125, 0.0078125, 0.0156250, 0.0000000, 0.0078125, 0.0000000, -0.0078125, 0.0078125, 0.0312500, 0.0000000, 0.0000000, 0.0000000, 0.0000000, 0.0000000, 0.0234375, 0.0156250, 0.0000000, 0.0000000, 0.0000000, -0.0234375, -0.0078125, 0.0000000, 0.0000000, 0.0078125, -0.0078125, -0.0312500, 0.0000000, 0.0078125, -0.0234375, 0.0156250, 0.0078125, -0.0078125, 0.0000000, -0.0156250, 0.0000000, -0.0156250, 0.0000000, -0.0156250, 0.0000000, 0.0078125, 0.0000000, -0.0078125, 0.0078125, 0.0000000, 0.0078125, 0.0000000, 0.0078125, 0.0078125, -0.0156250, 0.0000000, -0.0156250, 0.0078125, 0.0000000, 0.0078125, 0.0000000, 0.0078125, 0.0000000, 0.0078125, 0.0000000, 0.0156250, -0.0078125, -0.0078125, 0.0000000, 0.0000000, -0.0078125, 0.0000000, 0.0000000, -0.0156250, 0.0078125, -0.0156250, 0.0000000, -0.0156250, 0.0000000, 0.0078125, 0.0000000, 0.0000000, 0.0000000, 0.0000000, 0.0000000, 0.0000000, -0.0078125, 0.0078125, 0.0000000, 0.0000000, -0.0078125, 0.0000000, 0.0156250, 0.0078125, 0.0156250, 0.0000000, 0.0000000, 0.0078125, 0.0078125, 0.0000000, 0.0156250, -0.0156250, 0.0000000, -0.0312500, 0.0000000, 0.0078125, -0.0156250, 0.0000000, 0.0000000, -0.0078125, 0.0234375, 0.0156250, 0.0000000, 0.0078125, 0.0078125, 0.0156250, -0.0078125, 0.0000000, 0.0078125, -0.0078125, 0.0000000, -0.0078125, -0.0156250, 0.0000000, -0.0156250, 0.0078125, 0.0000000, 0.0000000, 0.0078125, 0.0000000, 0.0078125, 0.0156250, 0.0000000, -0.0078125, 0.0078125, 0.0078125, 0.0078125, 0.0078125, 0.0078125, 0.0078125, -0.0078125, -0.0078125, -0.0078125, 0.0000000, 0.0000000, 0.0078125, 0.0078125, 0.0000000, 0.0156250, 0.0156250, 0.0000000, 0.0000000, -0.0078125, 0.0000000, -0.0078125, 0.0000000, 0.0078125, 0.0078125, 0.0000000, -0.0078125, -0.0078125, 0.0078125, -0.0078125, 0.0156250, 0.0078125, -0.0078125, 0.0000000, -0.0078125, -0.0234375, -0.0156250, 0.0000000, 0.0000000, 0.0078125, 0.0000000, 0.0000000, -0.0156250, 0.0000000, -0.0078125, 0.0078125, -0.0156250, 0.0156250, 0.0078125, 0.0000000, 0.0078125, 0.0078125, 0.0078125, 0.0000000, 0.0078125, 0.0000000, 0.0000000, 0.0000000, 0.0156250, 0.0000000, -0.0078125, 0.0000000, 0.0078125, -0.0078125, 0.0078125, 0.0000000, 0.0078125, 0.0000000, 0.0000000, 0.0000000, 0.0000000, 0.0078125, -0.0078125, 0.0000000, 0.0156250, 0.0000000, 0.0000000, 0.0000000, 0.0000000, 0.0000000, 0.0078125, -0.0078125, 0.0078125, 0.0000000, -0.0078125, 0.0000000, 0.0000000, 0.0156250, 0.0156250, -0.0078125, 0.0078125, -0.0156250, -0.0078125, 0.0078125, 0.0078125, 0.0000000, 0.0000000, 0.0000000, -0.0156250, -0.0078125, 0.0000000, 0.0000000, 0.0000000, 0.0078125, -0.0234375, 0.0078125, 0.0156250, 0.0000000, -0.0078125, 0.0156250, 0.0000000, 0.0000000, 0.0000000, 0.0156250, 0.0000000, 0.0000000, -0.0234375, 0.0000000, -0.0312500, 0.0000000, 0.0156250, 0.0000000, 0.0000000, 0.0078125, 0.0000000, 0.0000000, 0.0234375, 0.0078125, 0.0078125, 0.0000000, 0.0000000, 0.0078125, -0.0234375, 0.0000000, 0.0000000, 0.0000000, -0.0390625, 0.0234375, 0.0000000, 0.0000000, 0.0000000, 0.0000000, -0.0078125, 0.0000000, 0.0156250, 0.0000000, 0.0078125, 0.0000000, -0.0078125, -0.0078125, 0.0000000, 0.0000000, 0.0000000, 0.0078125, 0.0078125, -0.0234375, 0.0000000, 0.0000000, 0.0000000, 0.0000000, -0.0078125, -0.0234375, 0.0000000, -0.0234375, 0.0078125, -0.0156250, -0.0078125, -0.0078125, 0.0000000, 0.0000000, 0.0000000, 0.0078125, -0.0078125, 0.0078125, -0.0156250, 0.0000000, 0.0000000, 0.0000000, 0.0000000, 0.0078125, 0.0000000, 0.0000000, 0.0000000, -0.0078125, -0.0390625, 0.0078125, 0.0078125, -0.0078125, 0.0078125, -0.0156250, 0.0000000, -0.0156250, 0.0000000, 0.0000000, 0.0000000, -0.0078125, 0.0000000, -0.0156250, 0.0000000, 0.0000000, 0.0000000, -0.0078125, 0.0000000, 0.0000000, 0.0000000, -0.0312500, 0.0000000, -0.0078125, -0.0156250, 0.0000000, -0.0078125, 0.0000000, -0.0156250, 0.0000000, 0.0000000, 0.0078125, 0.0000000, 0.0078125, -0.0078125, -0.0156250, 0.0000000, 0.0000000, -0.0078125, 0.0000000, -0.0078125, 0.0000000, -0.0078125, -0.0078125, 0.0000000, 0.0000000, 0.0000000, 0.0000000, -0.0312500, 0.0078125, 0.0000000, -0.0078125, 0.0078125, 0.0000000, -0.0078125, 0.0156250, 0.0078125, 0.0000000, -0.0078125, -0.0078125, -0.0312500, 0.0000000, -0.0078125, -0.0156250, 0.0078125, -0.0078125, 0.0000000, 0.0000000, 0.0000000, 0.0000000, 0.0078125, -0.0078125, 0.0156250, 0.0000000, 0.0156250, 0.0078125, 0.0078125, 0.0000000, 0.0156250, 0.0156250, -0.0156250, 0.0078125, 0.0000000, -0.0078125, 0.0078125, 0.0000000, 0.0156250, -0.0078125, 0.0078125, 0.0078125, 0.0078125, 0.0312500, 0.0156250, -0.0078125, 0.0156250, 0.0156250, 0.0078125, 0.0000000, 0.0078125, 0.0234375, 0.0156250, -0.0078125, 0.0156250, 0.0156250, -0.0234375, 0.0312500, -0.0078125, 0.0000000, 0.0000000, -0.0078125, 0.0000000, 0.0078125, -0.0312500, -0.0078125, 0.0078125, -0.0078125, 0.0078125, 0.0078125, 0.0234375, 0.0156250, 0.0000000, -0.0156250, 0.0156250, 0.0078125, 0.0234375, -0.0078125, 0.0078125, 0.0156250, 0.0312500, 0.0000000, 0.0078125, 0.0078125, -0.0078125, 0.0156250, 0.0078125, 0.0078125, 0.0078125, 0.0000000, 0.0078125, -0.0078125, -0.0078125, -0.0078125, 0.0156250, 0.0078125, 0.0078125, -0.0078125, 0.0156250, 0.0078125, 0.0078125, 0.0078125, 0.0078125, 0.0078125, 0.0078125, 0.0156250, 0.0156250, 0.0156250, 0.0000000, 0.0000000, 0.0000000, 0.0156250, 0.0156250, 0.0000000, 0.0000000, -0.0156250, 0.0000000, 0.0234375, 0.0078125, 0.0000000, 0.0078125, -0.0078125, 0.0234375, 0.0234375, 0.0234375, 0.0000000, -0.0078125, 0.0156250, -0.0234375, 0.0000000, 0.0156250, 0.0156250, 0.0234375, 0.0156250, -0.0078125, 0.0000000, 0.0078125, 0.0156250, -0.0078125, -0.0078125, -0.0312500, -0.0156250, -0.0078125, -0.0312500, 0.0078125, 0.0156250, -0.0078125, 0.0000000, 0.0078125, 0.0078125, 0.0078125, 0.0000000, 0.0156250, 0.0078125, 0.0156250, -0.0156250, 0.0156250, 0.0156250, 0.0078125, 0.0000000, -0.0078125, -0.0078125, -0.0078125, 0.0000000, 0.0000000, 0.0000000, 0.0156250, 0.0000000, 0.0000000, 0.0078125, -0.0078125, -0.0156250, 0.0078125, 0.0078125, 0.0078125, 0.0078125, 0.0156250, 0.0078125, -0.0078125, 0.0000000, 0.0078125, 0.0000000, 0.0078125, 0.0156250, -0.0156250, 0.0000000, 0.0000000, -0.0234375, 0.0156250, -0.0078125, 0.0078125, 0.0156250, -0.0234375, -0.0078125, -0.0078125, 0.0000000, 0.0000000, 0.0078125, -0.0156250, 0.0078125, 0.0078125, 0.0078125, 0.0156250, 0.0000000, 0.0078125, 0.0000000, 0.0156250, 0.0078125, -0.0078125, -0.0156250, 0.0156250, -0.0156250, 0.0000000, 0.0156250, 0.0156250, -0.0156250, 0.0078125, 0.0000000, 0.0078125, -0.0078125, 0.0000000, -0.0078125, 0.0000000, 0.0078125, 0.0000000, 0.0000000, 0.0156250, -0.0078125, 0.0078125, 0.0078125, 0.0156250, -0.0156250, 0.0078125, 0.0156250, 0.0156250, 0.0078125, -0.0078125, -0.0078125, -0.0078125, 0.0156250, 0.0156250, 0.0156250, 0.0000000, 0.0000000, 0.0156250, 0.0078125, 0.0000000, 0.0078125, -0.0078125, 0.0000000, 0.0078125, -0.0156250, 0.0078125, 0.0000000, 0.0000000, 0.0156250, -0.0234375, 0.0078125, 0.0156250, 0.0078125, 0.0156250, 0.0078125, -0.0078125, -0.0312500, 0.0000000, 0.0078125, 0.0000000, -0.0078125, -0.0234375, 0.0000000, 0.0156250, 0.0156250, 0.0156250, 0.0156250, -0.0078125, -0.0078125, 0.0078125, 0.0078125, 0.0078125, 0.0078125, -0.0234375, -0.0156250, 0.0156250, -0.0156250, -0.0078125, 0.0156250, 0.0156250, -0.0156250, -0.0156250, 0.0000000, -0.0078125, -0.0078125, -0.0156250, -0.0078125, 0.0156250, 0.0078125, -0.0078125, 0.0156250, -0.0078125, -0.0078125, 0.0000000, -0.0078125, -0.0078125, 0.0078125, 0.0156250, 0.0078125, 0.0000000, 0.0000000, 0.0078125, 0.0000000, 0.0000000, 0.0156250, 0.0078125, -0.0078125, -0.0078125, -0.0078125, 0.0156250, -0.0234375, 0.0000000, 0.0078125, 0.0000000, -0.0078125, 0.0078125, -0.0234375, 0.0000000, 0.0078125, -0.0078125, 0.0156250, 0.0156250, 0.0078125, 0.0156250, 0.0156250, 0.0078125, -0.0078125, 0.0156250, 0.0078125, -0.0078125, 0.0000000, 0.0156250, -0.0156250, 0.0000000, -0.0078125, 0.0000000, -0.0234375, 0.0156250, -0.0078125, 0.0078125, -0.0156250, -0.0156250, -0.0078125, 0.0000000, -0.0078125, -0.0078125, 0.0000000, 0.0156250, -0.0156250, 0.0078125, 0.0000000, 0.0156250, -0.0312500, 0.0078125, -0.0078125, 0.0078125, 0.0078125, -0.0156250, -0.0156250, -0.0078125, 0.0078125, 0.0156250, 0.0078125, 0.0078125, 0.0234375, 0.0078125, 0.0156250, -0.0078125, 0.0156250, -0.0078125, -0.0078125, 0.0000000, -0.0156250, 0.0000000, -0.0156250, -0.0156250, 0.0156250, -0.0390625, 0.0000000, 0.0156250, 0.0078125, 0.0078125, 0.0078125, -0.0078125, -0.0312500, -0.0078125, 0.0156250, -0.0078125, -0.0234375, -0.0234375, -0.0156250, 0.0078125, -0.0156250, 0.0156250, 0.0000000, -0.0156250, 0.0156250, 0.0078125, 0.0000000, 0.0078125, 0.0078125, -0.0156250, -0.0078125, 0.0000000, -0.0078125, 0.0000000, -0.0078125, 0.0000000, -0.0078125, -0.0156250, -0.0078125, 0.0000000, 0.0000000, 0.0000000, -0.0078125, 0.0000000, -0.0156250, 0.0000000, 0.0000000, 0.0078125, -0.0156250, -0.0156250, 0.0000000, -0.0156250, 0.0000000, 0.0000000, -0.0078125, -0.0156250, 0.0000000, -0.0078125, -0.0156250, 0.0078125, -0.0078125, 0.0000000, 0.0000000, -0.0156250, -0.0078125, 0.0000000, 0.0078125, -0.0156250, 0.0078125, 0.0078125, -0.0078125, 0.0000000, 0.0000000, 0.0000000, -0.0078125, 0.0000000, 0.0000000, 0.0000000, -0.0156250, 0.0000000, 0.0000000, 0.0000000, 0.0000000, 0.0000000, -0.0078125, 0.0078125, 0.0000000, 0.0000000, -0.0156250, -0.0078125, 0.0000000, -0.0078125, -0.0156250, 0.0000000, -0.0156250, 0.0000000, -0.0078125, -0.0156250, -0.0078125, 0.0156250, -0.0156250, 0.0078125, 0.0000000, 0.0000000, 0.0078125, -0.0078125, -0.0078125, 0.0000000, 0.0156250, -0.0078125, -0.0156250, 0.0000000, 0.0000000, -0.0078125, -0.0078125, -0.0078125, -0.0078125, -0.0078125, -0.0078125, 0.0000000, 0.0000000, -0.0156250, -0.0078125, -0.0156250, -0.0156250, -0.0156250, 0.0000000, 0.0000000, 0.0078125, -0.0078125, -0.0156250, -0.0078125, 0.0000000, 0.0000000, -0.0078125, 0.0000000, 0.0000000, -0.0078125, 0.0000000, 0.0156250, 0.0078125, -0.0234375, -0.0078125, -0.0156250, 0.0078125, 0.0000000, -0.0078125, -0.0234375, -0.0078125, 0.0000000, -0.0078125, -0.0156250, -0.0078125, 0.0000000, 0.0078125, -0.0078125, 0.0000000, 0.0078125, -0.0078125, 0.0000000, -0.0078125, 0.0078125, 0.0000000, 0.0078125, -0.0312500, -0.0078125, -0.0390625, -0.0156250, -0.0156250, -0.0078125, -0.0078125, 0.0078125, -0.0156250, 0.0078125, 0.0000000, -0.0234375, -0.0390625, -0.0156250, 0.0000000, 0.0078125, 0.0078125, 0.0000000, -0.0078125, -0.0156250, -0.0078125, 0.0000000, -0.0156250, -0.0078125, 0.0000000, 0.0078125, -0.0156250, -0.0078125, -0.0078125, 0.0156250, -0.0234375, -0.0078125, 0.0156250, -0.0078125, 0.0078125, 0.0000000, 0.0000000, 0.0078125, -0.0078125, -0.0234375, 0.0000000, -0.0156250, 0.0156250, 0.0000000, 0.0078125, 0.0000000, 0.0000000, 0.0000000, 0.0078125, -0.0078125, 0.0078125, 0.0000000, -0.0234375, 0.0000000, -0.0078125, 0.0156250, -0.0078125, 0.0000000, -0.0078125, 0.0000000, -0.0156250, -0.0078125, 0.0000000, 0.0000000, 0.0000000, -0.0312500, -0.0156250, 0.0000000, -0.0234375, -0.0078125, 0.0078125, 0.0078125, -0.0234375, 0.0000000, -0.0078125, 0.0000000, 0.0156250, -0.0234375, -0.0156250, -0.0078125, 0.0078125, 0.0000000, -0.0078125, 0.0078125, 0.0000000, 0.0000000, -0.0156250, -0.0078125, -0.0156250, -0.0312500, -0.0156250, -0.0234375, -0.0078125, 0.0156250, -0.0078125, -0.0078125, 0.0078125, 0.0000000, -0.0078125, 0.0000000, 0.0078125, -0.0078125, 0.0000000, 0.0000000, -0.0078125, -0.0078125, 0.0000000, -0.0078125, -0.0078125, 0.0000000, -0.0078125, 0.0000000, 0.0156250, 0.0078125, 0.0000000, -0.0156250, -0.0078125, 0.0078125, 0.0078125, 0.0000000, 0.0000000, -0.0156250, -0.0078125, 0.0000000, -0.0078125, 0.0000000, -0.0156250, 0.0000000, -0.0312500, 0.0078125, 0.0000000, -0.0312500, -0.0312500, -0.0078125, -0.0156250, 0.0078125, -0.0078125, -0.0078125, 0.0078125, -0.0234375, -0.0156250, -0.0156250, 0.0078125, 0.0156250, 0.0078125, 0.0078125, -0.0156250, 0.0078125, -0.0078125, 0.0000000, -0.0234375, 0.0156250, 0.0000000, 0.0000000, -0.0078125, -0.0156250, -0.0156250, 0.0156250, -0.0312500, -0.0156250, 0.0000000, -0.0156250, -0.0078125, 0.0156250, 0.0000000, 0.0000000, -0.0078125, -0.0078125, 0.0078125, -0.0234375, 0.0078125, 0.0000000, -0.0078125, -0.0078125, -0.0234375, -0.0078125, 0.0000000, -0.0078125, 0.0000000, 0.0000000, -0.0078125, -0.0078125, -0.0156250, 0.0000000, -0.0156250, 0.0078125, -0.0156250, -0.0078125, 0.0000000, -0.0234375, 0.0000000, -0.0078125, -0.0234375, -0.0156250, 0.0000000, 0.0000000, -0.0078125, -0.0078125, -0.0078125, 0.0078125, -0.0156250, 0.0000000, -0.0156250, 0.0000000, 0.0078125, -0.0156250, -0.0312500, -0.0234375, 0.0078125, 0.0000000, -0.0078125, 0.0000000, 0.0078125, -0.0078125, -0.0156250, -0.0078125, 0.0000000, -0.0390625, -0.0234375, -0.0078125, 0.0000000, 0.0156250, -0.0156250, -0.0156250, 0.0078125, 0.0000000, -0.0078125, 0.0078125, 0.0078125, -0.0078125, 0.0000000, 0.0078125, 0.0000000, -0.0078125, 0.0000000, -0.0234375, -0.0078125, 0.0000000, -0.0078125, 0.0000000, 0.0000000, 0.0078125, -0.0078125, -0.0234375, -0.0234375, 0.0000000, 0.0078125, -0.0156250, 0.0078125, 0.0078125, 0.0078125, -0.0078125, 0.0078125, -0.0156250, -0.0312500, -0.0156250, 0.0000000, 0.0000000, 0.0000000, 0.0234375, 0.0234375, 0.0000000, -0.0234375, -0.0078125, -0.0078125, 0.0000000, -0.0156250, 0.0000000, -0.0078125, 0.0078125, 0.0000000, 0.0078125, -0.0156250, -0.0156250, 0.0078125, 0.0156250, -0.0156250, -0.0156250, 0.0078125, -0.0156250, -0.0156250, -0.0234375, -0.0156250, 0.0078125, -0.0078125, 0.0156250, 0.0078125, 0.0156250, -0.0156250, -0.0078125, 0.0156250, 0.0156250, -0.0156250, -0.0156250, -0.0156250, -0.0156250, -0.0078125, -0.0390625, 0.0000000, -0.0078125, -0.0078125, -0.0078125, 0.0234375, -0.0156250, -0.0156250, -0.0156250, -0.0312500, -0.0156250, -0.0078125, 0.0000000, -0.0078125, -0.0156250, 0.0078125, -0.0156250, 0.0234375, -0.0156250, 0.0000000, 0.0234375, 0.0000000, -0.0078125, -0.0156250, 0.0078125, 0.0078125, -0.0156250, 0.0156250, 0.0078125, -0.0078125, -0.0156250, 0.0000000, -0.0234375, 0.0000000, -0.0156250, -0.0156250, 0.0078125, 0.0312500, 0.0234375, -0.0078125, -0.0078125, -0.0156250, -0.0156250, -0.0156250, -0.0234375, 0.0078125, -0.0156250, 0.0000000, 0.0000000, 0.0234375, -0.0156250, 0.0078125, 0.0078125, 0.0156250, 0.0234375, -0.0156250, -0.0078125, -0.0156250, -0.0156250, -0.0156250, -0.0234375, -0.0156250, 0.0000000, 0.0156250, -0.0234375, -0.0156250, 0.0234375, 0.0156250, -0.0078125, 0.0000000, -0.0156250, 0.0000000, -0.0078125, -0.0078125, 0.0234375, -0.0312500, -0.0078125, 0.0000000, -0.0234375, -0.0156250, 0.0000000, 0.0156250, -0.0156250, 0.0078125, 0.0000000, -0.0078125, -0.0156250, -0.0078125, 0.0078125, 0.0000000, 0.0156250, 0.0234375, 0.0156250, -0.0078125, -0.0156250, -0.0156250, 0.0078125, -0.0078125, -0.0078125, 0.0078125, 0.0078125, 0.0078125, 0.0078125, -0.0078125, -0.0156250, 0.0078125, 0.0156250, 0.0000000, -0.0078125, 0.0078125, 0.0000000, -0.0078125, -0.0234375, 0.0000000, 0.0078125, -0.0078125, -0.0078125, 0.0156250, 0.0156250, -0.0156250, 0.0234375, 0.0078125, 0.0078125, -0.0546875, -0.0234375, -0.0156250, -0.0078125, -0.0156250, -0.0156250, 0.0078125, -0.0078125, 0.0156250, -0.0156250, 0.0234375, -0.0234375, -0.0156250, 0.0078125, -0.0468750, -0.0156250, 0.0078125, -0.0156250, -0.0078125, -0.0234375, 0.0000000, -0.0156250, 0.0234375, -0.0156250, 0.0000000, 0.0234375, -0.0156250, 0.0078125, -0.0078125, 0.0000000, 0.0156250, -0.0078125, 0.0000000, 0.0078125, 0.0000000, -0.0156250, 0.0000000, -0.0078125, 0.0156250, -0.0234375, -0.0234375, 0.0234375, 0.0234375, 0.0156250, -0.0156250, -0.0078125, -0.0234375, -0.0156250, -0.0234375, -0.0312500, 0.0000000, -0.0078125, -0.0156250, -0.0078125, 0.0234375, 0.0000000, 0.0078125, 0.0156250, 0.0234375, 0.0156250, -0.0078125, -0.0156250, -0.0156250, -0.0078125, -0.0078125, -0.0156250, -0.0078125, 0.0000000, -0.0078125, -0.0078125, -0.0156250, 0.0234375, 0.0078125, -0.0078125, 0.0156250, -0.0156250, 0.0000000, -0.0156250, 0.0000000, 0.0078125, -0.0156250, -0.0156250, 0.0000000, -0.0156250, -0.0078125, 0.0156250, 0.0234375, -0.0156250, -0.0156250, -0.0234375, -0.0078125, -0.0156250, -0.0156250, -0.0156250, 0.0000000, 0.0078125, 0.0156250, 0.0078125, 0.0156250, -0.0078125, -0.0156250, -0.0156250, -0.0234375, -0.0156250, 0.0078125, 0.0156250, 0.0078125, 0.0156250, -0.0156250, -0.0156250, 0.0156250, 0.0078125, -0.0156250, -0.0078125, 0.0156250, -0.0078125, -0.0078125, -0.0078125, -0.0078125, 0.0156250, 0.0000000, 0.0078125, 0.0234375, 0.0156250, -0.0156250, 0.0078125, 0.0000000, -0.0078125, -0.0156250, -0.0234375, -0.0234375, 0.0234375, -0.0156250, 0.0078125, 0.0078125, -0.0078125, 0.0078125, -0.0156250, 0.0234375, -0.0234375, -0.0156250, -0.0078125, -0.0234375, -0.0234375, 0.0156250, -0.0312500, -0.0078125, -0.0156250, 0.0000000, -0.0156250, 0.0156250, -0.0078125, -0.0078125, 0.0156250, -0.0156250, 0.0078125, -0.0078125, 0.0156250, 0.0156250, -0.0078125, 0.0078125, 0.0078125, -0.0156250, -0.0156250, 0.0156250, -0.0156250, 0.0078125, -0.0156250, -0.0156250, 0.0156250, 0.0156250, 0.0156250, -0.0156250, -0.0078125, -0.0156250, -0.0156250, 0.0000000, -0.0312500, -0.0078125, -0.0234375, -0.0078125, 0.0000000, 0.0156250, 0.0312500, 0.0078125, 0.0000000, 0.0156250, 0.0156250, -0.0156250, -0.0078125, -0.0312500, -0.0078125, -0.0156250, -0.0312500, -0.0234375, -0.0312500, 0.0000000, -0.0156250, -0.0156250, 0.0234375, 0.0078125, -0.0078125, 0.0078125, 0.0000000, -0.0156250, -0.0156250, -0.0078125, 0.0000000, 0.0078125, -0.0156250, 0.0000000, -0.0156250, -0.0078125, 0.0078125, 0.0156250, 0.0000000, 0.0078125, -0.0312500, 0.0000000, -0.0078125, -0.0078125, -0.0078125, 0.0156250, 0.0078125, 0.0156250, 0.0078125, 0.0000000, -0.0156250, -0.0234375, 0.0234375, 0.0000000, -0.0156250, 0.0078125, 0.0000000, 0.0078125, 0.0078125, 0.0000000, 0.0000000, 0.0078125, -0.0078125, -0.0156250, -0.0078125, -0.0078125, 0.0078125, -0.0078125, 0.0078125, -0.0234375, -0.0078125, -0.0078125, 0.0156250, 0.0000000, 0.0078125, -0.0078125, 0.0156250, 0.0078125, 0.0078125, -0.0390625, -0.0078125, -0.0078125, 0.0156250, 0.0000000, 0.0078125, -0.0078125, -0.0078125, 0.0000000, 0.0000000, 0.0078125, -0.0078125, -0.0078125, 0.0000000, -0.0234375, -0.0078125, -0.0078125, -0.0078125, -0.0078125, 0.0000000, 0.0000000, -0.0078125, 0.0000000, -0.0078125, -0.0156250, 0.0078125, 0.0000000, -0.0078125, -0.0156250, 0.0078125, 0.0000000, -0.0078125, 0.0156250, 0.0078125, -0.0312500, -0.0078125, 0.0000000, -0.0156250, -0.0078125, 0.0000000, -0.0078125, 0.0078125, 0.0078125, 0.0078125, -0.0078125, 0.0000000, -0.0078125, -0.0078125, 0.0078125, -0.0078125, 0.0078125, -0.0156250, -0.0156250, -0.0078125, 0.0234375, -0.0078125, 0.0000000, 0.0000000, 0.0078125, 0.0078125, -0.0078125, -0.0078125, -0.0078125, 0.0000000, -0.0156250, 0.0000000, -0.0156250, -0.0156250, 0.0156250, -0.0078125, 0.0000000, 0.0078125, 0.0078125, -0.0078125, 0.0000000, -0.0234375, -0.0312500, 0.0078125, -0.0078125, 0.0156250, -0.0156250, -0.0078125, -0.0078125, -0.0078125, -0.0156250, -0.0156250, 0.0078125, 0.0000000, 0.0000000, -0.0078125, 0.0000000, -0.0078125, -0.0156250, -0.0078125, -0.0078125, 0.0078125, 0.0078125, 0.0078125, 0.0000000, 0.0000000, -0.0390625, 0.0078125, 0.0000000, -0.0234375, -0.0078125, 0.0078125, 0.0156250, 0.0078125, 0.0000000, 0.0000000, 0.0000000, -0.0078125, -0.0078125, 0.0078125, -0.0078125, 0.0000000, -0.0078125, -0.0078125, 0.0078125, -0.0078125, -0.0312500, 0.0078125, 0.0000000, 0.0000000, -0.0078125, 0.0390625, 0.0000000, 0.0000000, -0.0390625, -0.0078125, 0.0000000, 0.0234375, 0.0000000, 0.0156250, 0.0078125, 0.0078125, 0.0390625, 0.0000000, 0.0078125, -0.0078125, -0.0078125, 0.0078125, -0.0234375, -0.0078125, -0.0078125, -0.0390625, -0.0156250, 0.0078125, 0.0000000, 0.0000000, 0.0078125, 0.0078125, -0.0156250, 0.0078125, 0.0000000, 0.0000000, -0.0078125, -0.0078125, 0.0078125, 0.0078125, -0.0078125, 0.0000000, 0.0000000, 0.0000000, -0.0078125, 0.0000000, 0.0078125, -0.0078125, 0.0000000, -0.0078125, 0.0078125, 0.0078125, 0.0078125, 0.0156250, -0.0156250, -0.0078125, 0.0000000, -0.0156250, -0.0078125, -0.0078125, -0.0078125, -0.0078125, 0.0078125, 0.0078125, 0.0078125, 0.0078125, 0.0078125, 0.0078125, 0.0000000, -0.0156250, 0.0000000, -0.0078125, 0.0000000, 0.0000000, 0.0078125, 0.0000000, 0.0078125, -0.0156250, 0.0000000, 0.0078125, 0.0000000, 0.0000000, 0.0156250, -0.0078125, -0.0312500, -0.0078125, -0.0078125, 0.0000000, 0.0078125, 0.0000000, -0.0078125, 0.0234375, 0.0078125, 0.0000000, 0.0000000, 0.0000000, 0.0078125, 0.0078125, 0.0000000, -0.0078125, -0.0156250, 0.0078125, 0.0078125, 0.0078125, 0.0078125, 0.0156250, 0.0000000, 0.0000000, -0.0234375, 0.0000000, 0.0000000, -0.0234375, 0.0078125, 0.0156250, -0.0078125, 0.0312500, -0.0078125, 0.0000000, 0.0234375, 0.0000000, -0.0156250, -0.0078125, 0.0000000, 0.0000000, -0.0078125, 0.0000000, -0.0156250, 0.0000000, -0.0078125, 0.0000000, 0.0078125, 0.0078125, -0.0078125, 0.0390625, 0.0078125, 0.0312500, -0.0234375, -0.0078125, 0.0156250, 0.0546875, 0.0078125, 0.0156250, 0.0078125, 0.0000000, 0.0312500, 0.0078125, 0.0078125, 0.0000000, -0.0078125, -0.0078125, -0.0156250, -0.0078125, 0.0000000, -0.0156250, 0.0078125, 0.0156250, 0.0000000, 0.0000000, 0.0078125, 0.0078125, -0.0156250, 0.0078125, 0.0078125, 0.0000000, -0.0078125, -0.0078125, 0.0156250, 0.0000000, 0.0156250, 0.0156250, -0.0078125, 0.0000000, 0.0000000, 0.0000000, 0.0234375, -0.0078125, -0.0078125, 0.0000000, 0.0078125, 0.0078125, 0.0000000, 0.0078125, 0.0000000, 0.0078125, -0.0156250, -0.0156250, 0.0000000, -0.0078125, 0.0156250, 0.0078125, 0.0156250, 0.0000000, 0.0234375, 0.0234375, 0.0078125, 0.0156250, 0.0000000, -0.0234375, 0.0078125, 0.0000000, 0.0000000, 0.0078125, 0.0000000, 0.0000000, 0.0000000, -0.0156250, 0.0000000, 0.0078125, -0.0078125, -0.0078125, 0.0234375, 0.0000000, -0.0468750, -0.0078125, -0.0078125, 0.0078125, 0.0078125, 0.0000000, -0.0078125, 0.0078125, -0.0078125, 0.0000000, 0.0078125, 0.0000000, -0.0156250, -0.0156250, 0.0000000, -0.0078125, 0.0000000, -0.0156250, -0.0156250, 0.0000000, 0.0000000, 0.0156250, 0.0078125, -0.0078125, -0.0156250, 0.0000000, 0.0000000, 0.0000000, -0.0078125, 0.0078125, -0.0156250, 0.0000000, 0.0000000, 0.0000000, 0.0078125, 0.0078125, -0.0156250, 0.0000000, -0.0156250, 0.0156250, 0.0000000, 0.0078125, -0.0078125, -0.0156250, -0.0156250, 0.0000000, 0.0000000, -0.0078125, -0.0078125, -0.0234375, 0.0000000, 0.0156250, -0.0078125, -0.0078125, 0.0000000, -0.0390625, 0.0000000, 0.0000000, 0.0156250, 0.0000000, -0.0078125, 0.0000000, 0.0078125, 0.0000000, -0.0078125, 0.0000000, 0.0000000, 0.0000000, -0.0078125, -0.0234375, -0.0156250, -0.0156250, -0.0156250, -0.0078125, -0.0078125, -0.0078125, -0.0312500, -0.0078125, -0.0156250, -0.0078125, -0.0156250, 0.0000000, 0.0156250, 0.0000000, 0.0156250, 0.0078125, 0.0000000, -0.0078125, 0.0078125, -0.0078125, 0.0078125, 0.0000000, -0.0078125, 0.0000000, -0.0078125, -0.0078125, 0.0000000, 0.0000000, 0.0000000, -0.0156250, 0.0156250, 0.0000000, 0.0000000, -0.0078125, 0.0000000, 0.0078125, 0.0078125, -0.0078125, 0.0078125, -0.0156250, -0.0078125, 0.0078125, 0.0000000, -0.0078125, 0.0000000, 0.0000000, 0.0000000, 0.0078125, 0.0000000, 0.0000000, 0.0234375, 0.0078125, 0.0000000, 0.0000000, 0.0000000, -0.0078125, 0.0234375, 0.0156250, -0.0234375, 0.0000000, -0.0078125, 0.0078125, 0.0078125, -0.0078125, -0.0234375, -0.0078125, -0.0078125, -0.0078125, 0.0000000, 0.0078125, 0.0000000, 0.0000000, 0.0000000, 0.0000000, -0.0078125, 0.0156250, -0.0078125, -0.0078125, 0.0000000, 0.0078125, 0.0078125, 0.0078125, -0.0234375, 0.0156250, 0.0000000, -0.0078125, -0.0078125, 0.0078125, -0.0312500, 0.0000000, 0.0078125, 0.0078125, 0.0000000, -0.0078125, 0.0000000, 0.0078125, -0.0078125, 0.0078125, 0.0078125, -0.0078125, -0.0078125, -0.0156250, -0.0156250, 0.0000000, -0.0156250, -0.0078125, 0.0000000, -0.0078125, -0.0078125, -0.0078125, 0.0000000, -0.0078125, 0.0078125, 0.0000000, 0.0078125, 0.0000000, 0.0234375, 0.0078125, 0.0078125, 0.0078125, 0.0000000, 0.0078125, 0.0078125, -0.0078125, 0.0078125, 0.0078125, -0.0234375, -0.0312500, -0.0078125, -0.0078125, -0.0156250, 0.0078125, 0.0000000, 0.0078125, -0.0156250, -0.0078125, -0.0078125, -0.0078125, 0.0000000, 0.0000000, -0.0078125, 0.0156250, -0.0078125, -0.0078125, 0.0078125, 0.0000000, -0.0078125, 0.0000000, 0.0000000, 0.0078125, 0.0000000, -0.0156250, 0.0000000, -0.0078125, 0.0078125, 0.0156250, -0.0156250, 0.0156250, 0.0078125, -0.0078125, 0.0000000, 0.0000000, -0.0468750, 0.0000000, 0.0000000, 0.0000000, -0.0078125, 0.0000000, -0.0078125, 0.0000000, 0.0078125, -0.0078125, -0.0078125, 0.0000000, 0.0078125, 0.0078125, 0.0078125, -0.0078125, -0.0156250, 0.0000000, 0.0078125, 0.0000000, 0.0000000, -0.0078125, 0.0234375, -0.0234375, 0.0000000, 0.0000000, 0.0000000, 0.0078125, 0.0000000, 0.0078125, -0.0390625, 0.0078125, 0.0078125, -0.0234375, 0.0000000, 0.0000000, 0.0156250, 0.0000000, 0.0000000, 0.0000000, 0.0078125, 0.0156250, 0.0156250, 0.0000000, 0.0000000, 0.0312500, -0.0078125, 0.0000000, -0.0078125, 0.0078125, 0.0000000, 0.0156250, -0.0156250, 0.0156250, 0.0000000, -0.0078125, 0.0000000, 0.0000000, 0.0000000, 0.0000000, 0.0000000, 0.0000000, 0.0000000, 0.0390625, 0.0078125, -0.0078125, -0.0156250, 0.0000000, 0.0078125, -0.0078125, -0.0234375, 0.0000000, 0.0000000, -0.0078125, 0.0078125, 0.0234375, -0.0312500, -0.0234375, 0.0000000, 0.0000000, 0.0078125, 0.0000000, 0.0078125, 0.0078125, 0.0078125, 0.0078125, 0.0000000, 0.0000000, 0.0000000, -0.0234375, -0.0234375, 0.0000000, -0.0312500, -0.0156250, 0.0000000, 0.0078125, -0.0156250, 0.0000000, 0.0000000, 0.0078125, -0.0078125, -0.0078125, 0.0078125, -0.0078125, 0.0000000, 0.0156250, 0.0000000, 0.0078125, 0.0078125, 0.0078125, -0.0078125, 0.0000000, -0.0078125, 0.0000000, -0.0078125, 0.0000000, 0.0000000, 0.0156250, -0.0078125, -0.0156250, 0.0078125, 0.0156250, -0.0234375, 0.0078125, 0.0234375, -0.0156250, -0.0078125, -0.0078125, -0.0156250, 0.0000000, 0.0000000, 0.0078125, 0.0000000, -0.0156250, 0.0000000, 0.0078125, 0.0000000, -0.0156250, -0.0234375, 0.0078125, 0.0000000, 0.0078125, 0.0000000, 0.0078125, -0.0156250, -0.0234375, 0.0000000, 0.0000000, -0.0156250, -0.0078125, 0.0390625, -0.0156250, -0.0312500, 0.0000000, -0.0078125, -0.0078125, -0.0078125, 0.0000000, -0.0078125, 0.0078125, 0.0078125, 0.0078125, -0.0312500, -0.0156250, -0.0390625, -0.0312500, -0.0156250, 0.0078125, 0.0234375, -0.0781250, 0.0390625, 0.0000000, 0.0156250, 0.0156250, -0.0156250, -0.0078125, 0.0078125, -0.0078125, -0.0156250, -0.0078125, 0.0468750, 0.0156250, 0.0156250, -0.0156250, 0.0000000, 0.0156250, -0.0468750, 0.0156250, -0.0390625, 0.0000000, -0.0078125, 0.0234375, -0.0078125, 0.0156250, -0.0312500, -0.0156250, -0.0078125, 0.0468750, -0.0234375, 0.0078125, -0.0156250, -0.1171875, -0.0546875, -0.0234375, 0.0234375, -0.0546875, 0.0000000, 0.0078125, 0.0156250, -0.0312500, 0.0000000, -0.0078125, -0.0078125, 0.0078125, 0.0156250, -0.0156250, -0.0078125, -0.0546875, 0.0156250, -0.0312500, -0.0468750, -0.0156250, -0.0546875, -0.0156250, -0.0156250, -0.0234375, 0.0000000, 0.0078125, 0.0234375, 0.0078125, -0.0312500, 0.0156250, -0.0234375, -0.0390625, 0.0078125, 0.0078125, 0.0078125, -0.0312500, -0.0156250, -0.0078125, -0.0312500, -0.0156250, -0.0078125, 0.0000000, 0.0078125, -0.0312500, 0.0078125, 0.0000000, 0.0000000, 0.0078125, -0.0390625, 0.0078125, 0.0468750, -0.0078125, 0.0078125, -0.0156250, -0.0390625, -0.0390625, 0.0156250, 0.0468750, -0.0312500, -0.0156250, 0.0000000, 0.0000000, -0.0234375, -0.0312500, -0.0390625, 0.0000000, -0.0078125, 0.0000000, -0.0156250, -0.0390625, -0.0703125, 0.0000000, -0.0078125, 0.0078125, 0.0078125, -0.0078125, 0.0156250, -0.0312500, 0.0390625, 0.0000000, 0.0078125, 0.0234375, -0.0781250, 0.0000000, 0.0156250, 0.0234375, -0.0078125, -0.0390625, -0.0390625, -0.0156250, -0.0468750, -0.0156250, -0.0234375, -0.0312500, 0.0546875, -0.0390625, 0.0156250, 0.0078125, 0.0156250, 0.0000000, -0.0156250, -0.0234375, 0.0312500, 0.0546875, -0.0234375, 0.0546875, 0.0703125, 0.0156250, -0.0078125, -0.0468750, -0.0390625, -0.0156250, 0.0312500, 0.0546875, -0.0390625, 0.0000000, 0.0156250, 0.0234375, -0.0156250, 0.0078125, -0.0546875, 0.0078125, 0.0468750, -0.0078125, -0.0546875, 0.0156250, -0.0390625, -0.0546875, -0.0312500, -0.0390625, 0.0312500, -0.0078125, 0.0000000, 0.0000000, 0.0000000, -0.0312500, 0.0546875, -0.0156250, 0.0156250, 0.0000000, 0.0156250, -0.0156250, -0.0390625, -0.0546875, 0.0234375, 0.0000000, 0.0078125, -0.0078125, -0.0937500, -0.0078125, -0.0312500, -0.0234375, 0.0078125, 0.0000000, 0.0468750, 0.0156250, -0.0156250, -0.0156250, 0.0000000, 0.0546875, 0.0156250, -0.0156250, -0.0312500, -0.0156250, -0.0234375, -0.0156250, -0.0390625, -0.0625000, 0.0078125, -0.0312500, -0.0390625, -0.0234375, 0.0156250, 0.0078125, -0.0078125, -0.0078125, -0.0390625, -0.0078125, 0.0390625, -0.0156250, 0.0234375, -0.0390625, -0.0390625, -0.0078125, 0.0078125, 0.0078125, 0.0000000, -0.0390625, 0.0078125, 0.0078125, -0.0390625, -0.0234375, -0.0234375, 0.0078125, -0.0546875, -0.0078125, -0.0312500, -0.0156250, -0.0312500, 0.0234375, 0.0000000, 0.0156250, 0.0234375, 0.0000000, 0.0703125, -0.0234375, 0.0156250, 0.0000000, 0.0078125, 0.0312500, -0.0468750, -0.0312500, -0.0234375, 0.0234375, -0.0546875, -0.0078125, -0.0078125, 0.0156250, -0.0078125, 0.0000000, 0.0234375, 0.0234375, 0.0312500, 0.0078125, 0.0000000, 0.0078125, 0.0156250, 0.0234375, 0.0546875, 0.0156250, -0.0078125, 0.0703125, 0.0156250, 0.0390625, 0.0468750, 0.0078125, -0.0390625, 0.0078125, -0.0078125, 0.0156250, 0.0000000, 0.0468750, -0.0156250, 0.0390625, 0.0078125, 0.0234375, 0.0234375, 0.0078125, -0.0390625, -0.0156250, 0.0390625, -0.0156250, -0.0859375, 0.0078125, 0.0156250, -0.0078125, 0.0000000, -0.0312500, 0.0312500, 0.0000000, 0.0546875, -0.0078125, 0.0156250, 0.0156250, 0.0937500, 0.0156250, -0.0156250, 0.0312500, 0.0156250, 0.0156250, 0.0156250, -0.0625000, 0.0234375, 0.0312500, 0.0000000, -0.0156250, -0.0468750, 0.0312500, -0.0156250, 0.0078125, 0.0000000, 0.0312500, 0.0468750, 0.0000000, -0.0078125, 0.0156250, 0.0078125, 0.0000000, -0.0156250, 0.0156250, 0.0000000, 0.0078125, -0.0156250, 0.0234375, -0.0312500, 0.0078125, -0.0078125, 0.0156250, -0.0156250, 0.0234375, 0.0078125, 0.0078125, 0.0156250, 0.0234375, 0.0156250, 0.0156250, 0.0078125, 0.0156250, 0.0625000, 0.0078125, 0.0000000, -0.0234375, 0.0156250, 0.0312500, 0.0000000, 0.0234375, 0.0000000, 0.0078125, 0.0078125, 0.0000000, 0.0312500, 0.0312500, -0.0234375, 0.0078125, 0.0312500, -0.0156250, -0.0156250, 0.0078125, 0.0156250, 0.0234375, 0.0312500, -0.0078125, 0.0546875, -0.0234375, 0.0390625, 0.0156250, -0.0156250, 0.0234375, -0.0468750, 0.0156250, -0.0312500, 0.0546875, -0.0234375, -0.0234375, -0.0390625, 0.0546875, -0.0390625, -0.0156250, 0.0625000, 0.0390625, 0.0156250, -0.0156250, -0.0234375, 0.0000000, 0.0078125, -0.0625000, 0.0625000, 0.0312500, 0.0156250, 0.0000000, 0.0390625, -0.0156250, -0.0078125, 0.0078125, -0.0468750, -0.0312500, 0.0312500, 0.0312500, 0.0156250, -0.0156250, 0.0156250, 0.0390625, 0.0234375, 0.0156250, 0.0468750, -0.0859375, -0.0078125, 0.0156250, 0.0703125, -0.0234375, 0.0312500, -0.0078125, 0.0390625, 0.0390625, -0.0390625, -0.0156250, -0.0078125, -0.0078125, 0.0468750, 0.0078125, 0.0625000, 0.0312500, 0.0312500, 0.0312500, 0.0390625, 0.0390625, 0.0078125, 0.0390625, 0.0312500, -0.0312500, 0.0390625, 0.0468750, -0.0078125, 0.0078125, 0.0000000, 0.0000000, 0.0234375, 0.0468750, -0.0078125, 0.0390625, 0.0156250, 0.0000000, -0.0312500, 0.0234375, -0.0312500, 0.0312500, -0.0468750, 0.0468750, 0.0156250, -0.0468750, -0.0468750, 0.0312500, 0.0234375, 0.0312500, -0.0312500, 0.0312500, 0.0390625, -0.0078125, -0.0078125, -0.0078125, 0.0312500, 0.0312500, 0.0312500, 0.0078125, 0.0000000, -0.0156250, 0.0859375, 0.0312500, 0.0234375, -0.0390625, 0.0000000, 0.0078125, -0.0234375, 0.0156250, -0.0078125, -0.0312500, 0.0312500, -0.0312500, 0.0390625, 0.0546875, 0.0234375, 0.0312500, 0.0390625, 0.0000000, -0.0078125, 0.0078125, 0.0468750, -0.0078125, 0.0000000, -0.0312500, 0.0000000, -0.0312500, 0.0234375, 0.0468750, 0.0078125, -0.0156250, 0.1015625, 0.0390625, 0.0000000, 0.0312500, 0.0312500, 0.0234375, -0.0312500, 0.0312500, -0.0156250, -0.0156250, 0.0703125, 0.0312500, 0.0156250, -0.0156250, -0.0156250, 0.0078125, 0.0078125, -0.0546875, 0.0859375, 0.0156250, 0.0312500, 0.0156250, 0.0390625, -0.0156250, 0.0781250, 0.0546875, -0.0078125, -0.0312500, 0.0234375, 0.0312500, 0.0390625, 0.0312500, 0.0156250, 0.0234375, 0.0156250, -0.0468750, 0.0390625, -0.0468750, 0.0078125, 0.0000000, 0.0468750, 0.0234375, 0.0078125, -0.0156250, 0.0156250, 0.0000000, -0.0234375, -0.0078125, 0.0234375, 0.0156250, 0.0312500, 0.0312500, 0.0546875, 0.0859375, 0.0468750, 0.0156250, 0.0078125, 0.0000000, 0.0000000, 0.0234375, 0.0156250, 0.0234375, 0.0078125, 0.0546875, 0.0546875, 0.0468750, -0.0546875, -0.0078125, 0.0234375, 0.0312500, -0.0156250, 0.0156250, 0.0078125, -0.0078125, 0.0156250, 0.0390625, 0.0156250, -0.0390625, -0.0390625, 0.0312500, 0.0156250, -0.0234375, -0.0390625, 0.0312500, 0.0390625, 0.0234375, 0.0234375, 0.0234375, 0.0234375, -0.0078125, -0.0078125, -0.0078125, 0.0234375, 0.0234375, 0.0468750, 0.0078125, 0.0156250, 0.0312500, 0.0703125, 0.0234375, 0.0312500, -0.0234375, 0.0000000, 0.0390625, 0.0156250, 0.0234375, -0.0234375, -0.0156250, 0.0390625, -0.0312500, 0.0546875, 0.0390625, 0.0234375, 0.0625000, 0.0312500, -0.0312500, 0.0078125, 0.0312500, 0.0468750, -0.0078125, 0.0078125, -0.0312500, 0.0234375, -0.0078125, 0.0000000, 0.0390625, 0.0000000, 0.0000000, 0.0937500, 0.0078125, 0.0000000, 0.0234375, 0.0156250, 0.0546875, -0.0234375, 0.0000000, -0.0390625, -0.0234375, 0.0234375, 0.0234375, -0.0390625, -0.0156250, -0.0312500, 0.0234375, 0.0078125, -0.0234375, 0.0859375, 0.0078125, 0.0312500, 0.0234375, 0.0078125, -0.0234375, 0.0781250, 0.0468750, -0.0078125, 0.0078125, 0.0156250, 0.0156250, 0.0312500, 0.0078125, 0.0312500, 0.0000000, -0.0078125, 0.0000000, 0.0234375, 0.0000000, -0.0312500, -0.0234375, 0.0156250, 0.0468750, -0.0390625, -0.0156250, 0.0156250, -0.0156250, -0.0234375, 0.0234375, -0.0078125, -0.0234375, 0.0078125, -0.0859375, 0.0156250, 0.0703125, 0.0625000, 0.0078125, -0.0156250, 0.0000000, 0.0000000, 0.0000000, 0.0156250, 0.0156250, -0.0625000, 0.0312500, 0.0390625, 0.0078125, -0.0390625, -0.0546875, -0.0234375, 0.0234375, -0.0078125, 0.0078125, -0.0625000, 0.0000000, 0.0156250, 0.0156250, 0.0078125, -0.0703125, 0.0000000, 0.0156250, -0.0078125, -0.0078125, -0.0156250, 0.0000000, 0.0312500, 0.0234375, -0.0078125, 0.0078125, 0.0156250, -0.0234375, 0.0078125, 0.0078125, 0.0000000, 0.0078125, 0.0390625, 0.0078125, 0.0156250, 0.0312500, 0.0078125, 0.0156250, 0.0703125, -0.0546875, 0.0078125, 0.0156250, 0.0078125, 0.0156250, -0.0234375, -0.0156250, 0.0078125, 0.0078125, 0.0234375, 0.0078125, 0.0078125, 0.0312500, 0.0156250, -0.0468750, 0.0078125, 0.0156250, 0.0234375, -0.0078125, 0.0312500, -0.0234375, 0.0390625, 0.0937500, 0.0078125, 0.0312500, 0.0234375, 0.0000000, 0.0234375, 0.0000000, -0.0156250, 0.0000000, 0.0156250, -0.1093750, 0.0078125, 0.0000000, 0.0000000, -0.0156250, 0.0078125, 0.0078125, -0.0781250, -0.0078125, -0.0078125, -0.0390625, -0.0156250, -0.0703125, -0.0078125, 0.0078125, 0.0312500, -0.0078125, 0.0078125, -0.0390625, 0.0703125, 0.0312500, -0.0390625, 0.0468750, -0.0078125, 0.0078125, 0.0390625, 0.0078125, -0.0078125, 0.0078125, 0.0000000, 0.0000000, 0.0078125, -0.0234375, 0.0156250, 0.0078125, 0.0078125, 0.0468750, -0.0546875, -0.0078125, 0.0156250, -0.0156250, 0.0078125, 0.0390625, -0.0234375, -0.0078125, 0.0000000, -0.0312500, 0.0000000, -0.0468750, -0.0390625, -0.0078125, -0.1015625, 0.0078125, -0.0156250, 0.0000000, -0.0078125, 0.0078125, -0.0156250, 0.0000000, -0.0078125, -0.0078125, 0.0000000, -0.0234375, -0.0078125, -0.0078125, 0.0000000, -0.0156250, 0.0078125, -0.0234375, 0.0000000, -0.0156250, -0.0390625, -0.0234375, -0.0156250, 0.0000000, -0.0390625, -0.0078125, -0.0078125, 0.0078125, 0.0078125, 0.0000000, -0.0078125, 0.0156250, 0.0078125, 0.0078125, -0.0312500, -0.0312500, 0.0078125, 0.0000000, -0.0625000, -0.0078125, 0.0390625, -0.0312500, 0.0468750, -0.0156250, -0.0546875, 0.0078125, -0.0312500, 0.0078125, 0.0234375, 0.0312500, 0.0000000, -0.0078125, 0.0000000, 0.0234375, -0.0234375, 0.0234375, -0.0156250, -0.0078125, 0.0078125, -0.0078125, -0.0468750, -0.0546875, -0.0078125, -0.0078125, -0.0078125, 0.0390625, 0.0000000, -0.0234375, -0.0703125, 0.0078125, -0.0390625, -0.0156250, 0.0156250, 0.0078125, 0.0468750, 0.0000000, 0.0000000, -0.1328125, 0.0000000, -0.0156250, -0.0312500, 0.0078125, -0.0312500, 0.0078125, -0.0625000, -0.0625000, -0.0312500, -0.0234375, -0.0156250, -0.0546875, -0.0546875, 0.0000000, 0.0156250, 0.0000000, -0.0078125, -0.0390625, 0.0625000, 0.0390625, 0.0234375, -0.0078125, 0.0000000, 0.0078125, 0.0000000, 0.0234375, 0.0078125, 0.0156250, -0.0156250, 0.0312500, -0.0078125, 0.0234375, 0.0156250, -0.0078125, 0.0312500, 0.0468750, -0.0390625, -0.0156250, 0.0156250, -0.0625000, 0.0156250, 0.0312500, -0.0468750, -0.0156250, -0.0312500, -0.0312500, 0.0000000, -0.0390625, -0.0156250, -0.0078125, -0.0703125, 0.0078125, -0.0156250, -0.0078125, 0.0156250, -0.0078125, 0.0000000, -0.0312500, 0.0312500, 0.0156250, -0.0312500, -0.0078125, -0.0546875, -0.0078125, -0.0156250, -0.0312500, -0.0312500, -0.0156250, 0.0000000, 0.0390625, -0.0156250, 0.0234375, -0.0312500, 0.0000000, -0.0078125, 0.0156250, -0.0390625, 0.0000000, 0.0312500, -0.0234375, 0.0078125, -0.0156250, 0.0000000, 0.0000000, -0.0312500, -0.0156250, 0.0000000, 0.0000000, -0.0312500, -0.0156250, 0.0625000, -0.0156250, 0.0000000, -0.0234375, -0.0546875, -0.0156250, -0.0234375, 0.0000000, 0.0156250, 0.0234375, -0.0156250, -0.0078125, 0.0000000, 0.0312500, -0.0234375, 0.0078125, -0.0234375, -0.0468750, 0.0078125, 0.0078125, 0.0156250, -0.0468750, -0.0156250, -0.0234375, -0.0234375, 0.0390625, 0.0546875, -0.0312500, -0.0781250, 0.0000000, -0.0312500, 0.0156250, 0.0000000, 0.0000000, 0.0156250, -0.0078125, -0.0078125, -0.0390625, 0.0156250, -0.0312500, -0.0156250, 0.0078125, -0.0156250, -0.0312500, -0.0234375, -0.0078125, -0.1015625, -0.0156250, -0.0234375, -0.0390625, -0.0234375, -0.0078125, -0.0156250, -0.0078125, -0.0234375, -0.0078125, 0.1093750, 0.0234375, 0.0234375, -0.0156250, -0.0390625, -0.0078125, 0.0156250, 0.0546875, -0.0156250, -0.0156250, -0.0078125, 0.0390625, -0.0234375, 0.0546875, -0.0312500, -0.0078125, 0.0390625, 0.0312500, -0.0312500, -0.0156250, -0.0234375, -0.0703125, 0.0468750, 0.0000000, -0.0859375, 0.0234375, -0.0078125, -0.0312500, -0.0312500, -0.0312500, -0.0390625, -0.0234375, -0.1406250, -0.0156250, -0.0156250, -0.0234375, 0.0000000, -0.0078125, -0.0156250, -0.0546875, 0.0468750, -0.0234375, -0.0234375, -0.0078125, 0.0625000, -0.0312500, -0.0156250, -0.0312500, -0.0078125, -0.0156250, 0.0234375, 0.0390625, -0.0234375, -0.0390625, 0.0000000, -0.0156250, -0.0078125, 0.0000000, -0.0078125, -0.0234375, -0.0312500, -0.0546875, -0.0234375, -0.0312500, -0.0156250, -0.0468750, -0.0234375, -0.0156250, -0.0234375, -0.0078125, -0.0078125, -0.0312500, 0.0468750, 0.0078125, 0.0078125, -0.0468750, -0.0078125, -0.0546875, -0.0078125, -0.0078125, 0.0078125, 0.0078125, -0.0312500, 0.0000000, -0.0312500, 0.0234375, -0.0390625, 0.0000000, -0.0468750, -0.0468750, -0.0156250, -0.0078125, -0.0546875, -0.0312500, -0.0312500, -0.0234375, 0.0156250, 0.0234375, 0.0468750, 0.0546875, -0.0156250, -0.0312500, -0.0234375, 0.0156250, -0.0078125, 0.0000000, 0.0390625, 0.0234375, -0.0234375, -0.0234375, -0.0078125, -0.0156250, -0.0078125, 0.0234375, -0.0234375, -0.0234375, -0.0078125, 0.0312500, 0.0156250, -0.0312500, -0.0390625, -0.0078125, -0.0546875, -0.0078125, 0.0312500, -0.0078125, -0.0156250, -0.0234375, 0.0390625, 0.0468750, 0.0078125, 0.1093750, -0.0234375, -0.0390625, 0.0312500, 0.0312500, -0.0312500, 0.0078125, 0.0468750, 0.0625000, -0.0156250, -0.0234375, -0.0781250, 0.0546875, 0.0546875, 0.0625000, 0.0859375, -0.0078125, -0.0312500, 0.0625000, -0.0312500, 0.0703125, -0.0234375, -0.0312500, -0.0312500, 0.0312500, -0.0156250, -0.0078125, 0.0546875, -0.0468750, 0.0546875, -0.0078125, -0.0156250, -0.0312500, -0.0078125, -0.0234375, -0.0312500, -0.0156250, 0.0703125, -0.0937500, 0.0859375, 0.0234375, -0.0234375, -0.0078125, -0.0078125, -0.0312500, -0.0234375, 0.0000000, 0.0312500, -0.0234375, -0.0156250, 0.0312500, 0.0078125, -0.0312500, 0.0703125, -0.0078125, 0.0000000, -0.0156250, 0.0625000, -0.0468750, 0.0078125, -0.0234375, -0.0156250, 0.0234375, -0.0312500, -0.0234375, -0.0234375, -0.0234375, -0.0078125, -0.0156250, 0.0000000, -0.0156250, 0.0312500, -0.0078125, 0.0234375, 0.0156250, -0.0390625, -0.0234375, 0.0859375, 0.1015625, 0.0156250, -0.0468750, -0.0468750, 0.0312500, 0.0078125, -0.0312500, -0.0312500, -0.0078125, -0.0234375, -0.0234375, -0.0156250, 0.0546875, -0.0078125, 0.0078125, -0.0156250, 0.0546875, 0.0937500, 0.0000000, -0.0078125, -0.0312500, 0.0078125, -0.0390625, 0.0078125, -0.0156250, -0.0234375, -0.0234375, -0.0234375, 0.0078125, -0.0156250, 0.0234375, -0.0156250, -0.0468750, -0.0390625, 0.0000000, -0.0234375, -0.0625000, 0.0312500, 0.0078125, -0.0078125, -0.0625000, -0.0625000, -0.0234375, -0.0156250, -0.0312500, 0.0234375, -0.0156250, -0.0156250, 0.0078125, -0.0781250, 0.0156250, -0.0312500, 0.0078125, 0.0625000, -0.0234375, -0.0156250, -0.0234375, 0.0156250, -0.0156250, -0.0156250, 0.0703125, -0.0078125, 0.0234375, 0.0078125, -0.0546875, -0.0546875, -0.0390625, 0.0000000, -0.0078125, -0.0156250, -0.0078125, -0.0156250, 0.0703125, 0.0390625, 0.0703125, 0.0156250, -0.0078125, -0.0312500, 0.0078125, 0.0234375, -0.0390625, -0.0312500, 0.0390625, -0.0156250, -0.0546875, 0.0000000, 0.0312500, 0.0234375, 0.0312500, -0.0234375, -0.0312500, 0.0546875, 0.0156250, -0.0312500, -0.0234375, 0.0390625, -0.0156250, -0.0234375, 0.0156250, 0.0000000, 0.0156250, -0.0234375, -0.0156250, -0.0390625, -0.0234375, -0.0546875, 0.0000000, -0.0156250, -0.0781250, 0.0312500, 0.0000000, -0.0312500, -0.0234375, 0.0078125, -0.0234375, -0.0234375, 0.0000000, 0.0468750, 0.0078125, 0.0234375, 0.0781250, -0.0390625, 0.0234375, -0.0156250, 0.0703125, 0.0000000, 0.0078125, 0.0156250, 0.0390625, -0.0234375, -0.0312500, 0.0234375, -0.0234375, 0.0078125, 0.0156250, -0.0468750, 0.0390625, 0.0078125, -0.0468750, 0.0937500, 0.0078125, 0.0234375, -0.0234375, 0.0000000, 0.0078125, 0.0312500, 0.0078125, -0.0937500, 0.0234375, 0.0078125, 0.0078125, -0.0625000, -0.0078125, 0.0000000, -0.0156250, -0.0390625, 0.0859375, 0.0546875, 0.0234375, -0.0156250, -0.0156250, 0.0468750, 0.0312500, -0.0390625, -0.0078125, 0.0078125, 0.0000000, 0.0078125, 0.0390625, 0.0625000, 0.0078125, 0.0156250, -0.0078125, 0.0390625, -0.0390625, -0.0546875, 0.0312500, 0.0156250, -0.0390625, 0.0234375, 0.0234375, -0.0156250, -0.0234375, -0.0468750, 0.0234375, -0.0390625, 0.0234375, 0.0234375, -0.0781250, -0.0312500, -0.0390625, 0.0078125, -0.0468750, -0.0156250, -0.0078125, 0.0156250, 0.0703125, 0.0234375, 0.0312500, -0.0156250, -0.0078125, 0.0312500, 0.0468750, 0.0156250, -0.0156250, 0.0000000, 0.0234375, 0.0078125, 0.0390625, -0.0078125, 0.0234375, -0.0078125, -0.0312500, -0.0703125, 0.0312500, -0.0234375, -0.0546875, 0.0000000, -0.0312500, -0.0703125, 0.0234375, 0.0156250, 0.0234375, -0.0312500, 0.0000000, -0.0937500, -0.0078125, -0.0234375, -0.0156250, 0.0781250, 0.0234375, -0.0390625, 0.0312500, 0.0000000, 0.0234375, 0.0156250, 0.0234375, 0.0312500, -0.0078125, 0.0312500, 0.0703125, 0.0000000, 0.0000000, 0.0312500, 0.0312500, -0.0156250, 0.0156250, -0.0546875, -0.0234375, 0.0625000, -0.0156250, -0.0390625, -0.0156250, -0.0078125, -0.0390625, -0.0234375, -0.0078125, -0.0156250, -0.0156250, 0.0156250, -0.0234375, -0.0234375, 0.0312500, 0.0156250, 0.0000000, 0.0312500, -0.0078125, -0.0546875, -0.0078125, 0.0390625, 0.0078125, -0.0234375, -0.0468750, 0.0234375, -0.0156250, 0.0468750, 0.0234375, 0.0312500, -0.0312500, -0.0156250, 0.0156250, -0.0312500, 0.0468750, 0.0156250, -0.0625000, -0.0546875, -0.0781250, -0.0078125, -0.0468750, -0.0468750, -0.0546875, -0.0078125, 0.0156250, 0.0312500, 0.0156250, 0.0156250, -0.0156250, -0.0312500, -0.0859375, 0.0078125, 0.0703125, -0.0468750, -0.0234375, 0.0312500, 0.0859375, 0.0078125, -0.0234375, -0.0703125, -0.0312500, -0.0234375, -0.0234375, -0.0234375, -0.0546875, 0.0468750, 0.0234375, -0.0625000, 0.0078125, 0.0234375, 0.0390625, -0.0234375, 0.0078125, 0.0625000, 0.0468750, -0.0625000, -0.0156250, -0.0156250, 0.0625000, -0.0468750, 0.0000000, -0.0781250, 0.0156250, -0.0312500, 0.0625000, 0.0781250, -0.0625000, 0.0312500, -0.0234375, 0.0468750, -0.0468750, -0.0625000, 0.0312500, -0.0625000, -0.0234375, 0.0156250, -0.0078125, 0.0000000, 0.0156250, 0.0312500, -0.0390625, 0.0468750, -0.0390625, 0.0312500, 0.0312500, -0.0156250, 0.0000000, -0.0078125, 0.0625000, -0.0468750, -0.0625000, 0.0546875, -0.0156250, -0.0312500, -0.0390625, 0.0000000, -0.0546875, 0.0000000, -0.0468750, -0.0390625, 0.0000000, 0.0078125, 0.0234375, -0.0468750, -0.0546875, -0.0468750, -0.0703125, 0.0312500, -0.0468750, 0.0234375, -0.0312500, -0.0078125, 0.0078125, 0.0000000, 0.0234375, -0.0312500, 0.0156250, 0.0468750, 0.0234375, -0.0625000, -0.0156250, -0.0312500, -0.0546875, -0.0546875, -0.0546875, -0.0156250, 0.0078125, 0.0156250, -0.0078125, -0.0468750, 0.0312500, 0.0078125, 0.0078125, 0.0312500, -0.0312500, -0.0234375, -0.0390625, -0.0078125, 0.0000000, -0.0312500, -0.0546875, -0.0078125, -0.0234375, -0.0625000, 0.0000000, -0.0312500, -0.0156250, -0.0390625, -0.0078125, -0.0390625, -0.0156250, 0.0312500, -0.0234375, -0.0625000, -0.0078125, -0.0234375, -0.0390625, -0.0312500, -0.0156250, 0.0234375, -0.0859375, -0.0156250, 0.0078125, -0.0312500, 0.0781250, -0.0234375, -0.0703125, -0.0390625, 0.0078125, 0.0390625, -0.0234375, 0.0390625, 0.0000000, 0.0234375, -0.0234375, -0.0468750, 0.0703125, -0.0390625, 0.0234375, 0.0312500, -0.0546875, -0.0468750, 0.0078125, -0.0234375, -0.0781250, -0.0156250, -0.0546875, 0.0078125, 0.0546875, -0.0312500, -0.0625000, -0.0156250, -0.0156250, 0.0234375, -0.0234375, -0.0390625, -0.0390625, 0.0078125, 0.0234375, -0.0078125, -0.0468750, 0.0000000, -0.0078125, 0.0000000, 0.0312500, -0.1015625, -0.0312500, 0.0000000, -0.0234375, 0.0000000, -0.0234375, -0.0078125, 0.0156250, 0.0390625, -0.0312500, 0.0078125, -0.0234375, -0.0078125, -0.0468750, -0.0234375, -0.0234375, -0.0312500, -0.0390625, -0.1015625, -0.0468750, 0.0078125, -0.0156250, -0.0312500, -0.0468750, -0.0156250, 0.0078125, -0.0234375, -0.0312500, 0.0312500, -0.0625000, 0.0312500, 0.0625000, -0.0390625, -0.0156250, 0.0078125, 0.0078125, -0.0156250, -0.0156250, -0.0468750, 0.0078125, 0.0156250, -0.0312500, -0.0078125, -0.0703125, -0.0234375, -0.0156250, -0.0468750, -0.0312500, -0.0156250, 0.0156250, 0.0781250, -0.0078125, -0.0234375, 0.0234375, -0.0234375, -0.0468750, 0.0078125, 0.0390625, -0.0234375, -0.0390625, -0.0156250, 0.0000000, -0.0625000, -0.0234375, 0.0234375, -0.0312500, -0.0312500, 0.0546875, -0.0234375, 0.0000000, -0.0625000, 0.0234375, 0.0078125, 0.0156250, -0.0468750, -0.0156250, 0.0468750, -0.0078125, 0.0000000, 0.0234375, -0.0312500, 0.0078125, -0.0781250, -0.0625000, 0.0000000, -0.0312500, -0.0546875, -0.0156250, -0.0078125, 0.0000000, 0.0078125, -0.0078125, -0.0625000, -0.0546875, 0.0078125, -0.0156250, -0.0859375, 0.0234375, -0.0156250, -0.0625000, -0.0390625, -0.0781250, 0.0000000, -0.0468750, -0.0703125, -0.0468750, 0.0000000, -0.0468750, -0.0234375, 0.0546875, -0.0312500, 0.0000000, 0.0000000, -0.0546875, -0.0078125, -0.0703125, -0.0625000, -0.0156250, 0.0390625, -0.0156250, -0.0234375, 0.0000000, 0.0000000, -0.0625000, -0.0078125, 0.0156250, -0.0859375, -0.0703125, -0.0390625, -0.0546875, -0.0546875, -0.0156250, -0.0546875, -0.0078125, -0.0312500, -0.0468750, -0.0156250, -0.0468750, -0.0078125, 0.0078125, -0.0234375, -0.0156250, 0.0000000, -0.0390625, 0.0000000, 0.0000000, -0.0390625, 0.0078125, -0.0156250, -0.0156250, -0.0078125, 0.0156250, -0.0312500, -0.0234375, 0.0000000, 0.0000000, -0.0156250, -0.0156250, -0.0156250, -0.0468750, 0.0468750, 0.0234375, -0.0312500, -0.0312500, 0.0078125, 0.0468750, -0.0937500, -0.0312500, -0.0546875, -0.0234375, 0.0000000, -0.0625000, 0.0078125, -0.0078125, -0.0312500, -0.0156250, 0.0000000, -0.0078125, -0.0078125, 0.0078125, 0.0000000, -0.0312500, -0.0312500, -0.0859375, 0.0000000, -0.0234375, 0.0468750, 0.0078125, -0.0156250, 0.0000000, -0.0234375, 0.0000000, -0.0390625, 0.0000000, -0.0234375, 0.0000000, 0.0234375, 0.0000000, 0.0156250, 0.0078125, -0.0234375, -0.0234375, -0.0234375, -0.0390625, 0.0390625, 0.0156250, 0.0156250, -0.0546875, -0.0468750, 0.0078125, -0.0078125, -0.0390625, 0.0078125, -0.0390625, 0.0234375, 0.0234375, -0.0156250, 0.0468750, -0.0078125, 0.0390625, 0.0156250, -0.0078125, -0.0234375, 0.0312500, 0.0390625, -0.0390625, -0.0078125, -0.0234375, -0.0390625, 0.0390625, -0.0156250, 0.0156250, 0.0312500, 0.0312500, 0.0078125, 0.0000000, -0.0078125, -0.0156250, 0.0312500, -0.0468750, 0.0156250, 0.0234375, 0.0156250, 0.0234375, 0.0468750, 0.0234375, -0.0156250, 0.0156250, 0.0390625, 0.0078125, -0.0078125, -0.0078125, 0.0156250, -0.0234375, 0.0468750, 0.0000000, -0.0156250, -0.0078125, 0.0000000, 0.0000000, 0.0390625, 0.0000000, 0.0078125, 0.0234375, 0.0312500, -0.0312500, -0.0468750, 0.0156250, 0.0234375, 0.0156250, -0.0156250, 0.0078125, -0.0390625, -0.0312500, 0.0859375, -0.0625000, 0.0468750, 0.0156250, -0.0312500, 0.0625000, 0.0078125, 0.0234375, 0.0312500, 0.0156250, -0.0390625, 0.0078125, -0.0546875, -0.0390625, 0.0703125, -0.0625000, -0.0156250, 0.0312500, 0.0234375, 0.0000000, 0.0000000, -0.0078125, 0.0312500, 0.0156250, -0.0156250, 0.0390625, -0.0390625, 0.0390625, -0.0390625, -0.0078125, -0.0156250, 0.0234375, -0.0312500, -0.0156250, 0.0000000, 0.0234375, -0.0078125, 0.0390625, 0.0625000, -0.0312500, -0.0156250, 0.0000000, -0.0703125, -0.0078125, -0.0078125, 0.0078125, 0.0000000, 0.0390625, -0.0234375, 0.0000000, 0.0312500, 0.0156250, -0.0234375, -0.0546875, -0.0156250, 0.0078125, -0.0234375, -0.0312500, -0.0078125, 0.0156250, 0.0078125, -0.0156250, -0.0312500, 0.0000000, 0.0625000, -0.0625000, 0.0078125, -0.0546875, -0.0468750, 0.0000000, 0.0859375, -0.0781250, 0.0156250, 0.0078125, -0.0156250, 0.0078125, -0.0156250, -0.0078125, 0.0312500, -0.0312500, 0.0078125, 0.0781250, 0.0000000, 0.0312500, -0.0546875, -0.0546875, -0.0156250, 0.0234375, 0.0078125, -0.0234375, 0.0000000, -0.0390625, -0.0156250, 0.0390625, 0.0156250, -0.0078125, -0.0156250, -0.0156250, -0.0234375, 0.0000000, 0.0000000, 0.0156250, 0.0156250, 0.0000000, 0.0078125, 0.0000000, 0.0468750, -0.0546875, 0.0000000, 0.0703125, -0.0156250, -0.0703125, 0.0156250, 0.0156250, 0.0234375, 0.0156250, 0.0234375, 0.0156250, -0.1093750, 0.0234375, -0.0156250, -0.0312500, 0.0156250, -0.0156250, -0.0390625, 0.0078125, -0.0234375, 0.0078125, -0.0234375, -0.0234375, 0.0156250, 0.0312500, -0.0156250, -0.0390625, 0.0078125, 0.0234375, 0.0078125, 0.0000000, 0.0234375, 0.0390625, -0.0781250, 0.0390625, 0.0000000, -0.0078125, 0.0312500, -0.0234375, 0.0078125, 0.0156250, -0.0546875, -0.0390625, 0.0156250, 0.0078125, 0.0156250, -0.0312500, -0.0468750, -0.0078125, 0.0000000, -0.0390625, 0.0078125, -0.0312500, 0.0156250, -0.0468750, 0.0234375, 0.0156250, -0.0390625, -0.0078125, -0.1093750, 0.0468750, -0.0078125, 0.0078125, -0.0156250, 0.0078125, -0.0312500, 0.0156250, 0.0078125, 0.0156250, 0.0156250, 0.0546875, 0.0078125, 0.0312500, -0.0859375, 0.0078125, -0.0156250, 0.0000000, -0.0312500, -0.0156250, 0.0000000, -0.0078125, -0.0468750, -0.0078125, -0.0234375, 0.0156250, -0.0390625, 0.0234375, 0.0312500, -0.0468750, -0.0625000, 0.0546875, 0.0000000, -0.0078125, -0.0078125, -0.0078125, -0.0156250, -0.0078125, 0.0078125, 0.0234375, -0.0390625, -0.0156250, 0.0156250, -0.0703125, 0.0156250, -0.0390625, -0.0546875, -0.0156250, -0.0390625, -0.0625000, 0.0000000, -0.0468750, 0.0546875, 0.0234375, 0.0156250, -0.0234375, 0.0078125, 0.1015625, 0.0000000, -0.0234375, 0.0000000, 0.0000000, 0.0000000, 0.0156250, -0.0546875, 0.0234375, -0.0078125, -0.0234375, -0.0390625, -0.0156250, -0.0781250, -0.0390625, -0.0468750, -0.0468750, -0.0390625, 0.0078125, -0.0625000, 0.0078125, 0.0078125, -0.0468750, 0.0000000, -0.0468750, 0.0078125, -0.0546875, 0.0468750, 0.0078125, -0.0234375, 0.0156250, 0.0390625, 0.0156250, -0.0156250, -0.0234375, 0.0234375, 0.0000000, -0.0156250, -0.0312500, -0.0390625, -0.0546875, 0.0156250, 0.0234375, 0.0000000, -0.0390625, -0.0703125, 0.0000000, 0.0234375, 0.0000000, -0.0703125, -0.0312500, -0.0390625, 0.0781250, -0.0156250, 0.0234375, -0.0546875, -0.0703125, 0.0000000, -0.0312500, 0.0000000, 0.0156250, -0.0234375, -0.0312500, 0.0468750, 0.0312500, -0.0156250, -0.0156250, 0.0234375, -0.0468750, -0.0703125, -0.0312500, 0.0312500, -0.0390625, 0.1015625, 0.0156250, -0.0156250, -0.0312500, -0.0234375, 0.0078125, -0.0390625, -0.0312500, 0.0000000, -0.0390625, 0.0312500, 0.0156250, -0.0234375, 0.0000000, 0.0156250, 0.0078125, -0.0234375, -0.0390625, -0.0312500, 0.0000000, 0.0000000, 0.0468750, 0.0000000, 0.0000000, 0.0312500, -0.0625000, 0.0078125, -0.0625000, 0.0156250, 0.0234375, 0.0234375, 0.0781250, -0.0078125, 0.0000000, 0.0000000, 0.0000000, -0.0312500, 0.0156250, 0.0000000, -0.0312500, 0.0078125, -0.0234375, -0.0390625, 0.0000000, 0.0390625, 0.0390625, 0.0546875, -0.0078125, -0.0078125, 0.0000000, 0.0078125, 0.0390625, -0.0234375, 0.0000000, -0.0234375, -0.0390625, 0.0078125, -0.0078125, 0.0156250, -0.0078125, -0.0546875, 0.0000000, 0.0000000, 0.0078125, -0.0156250, -0.0390625, 0.0078125, 0.0078125, -0.0390625, 0.0312500, 0.0312500, 0.0625000, -0.0312500, 0.0000000, -0.0078125, -0.0078125, 0.0156250, 0.0000000, 0.0000000, -0.0156250, -0.0312500, 0.0156250, 0.0156250, 0.0000000, 0.0234375, -0.0078125, -0.0156250, 0.0000000, 0.0156250, -0.0234375, 0.0156250, 0.0000000, -0.0156250, -0.0078125, 0.0000000, 0.0000000, 0.0078125, 0.0000000, 0.0156250, -0.0156250, 0.0390625, 0.0390625, 0.0156250, -0.0234375, -0.0156250, 0.0078125, 0.0078125, -0.0156250, 0.0390625, 0.0781250, -0.0078125, 0.0078125, 0.0000000, -0.0156250, 0.0390625, 0.0000000, -0.0390625, 0.0156250, 0.0078125, 0.0156250, 0.0234375, -0.0312500, 0.0000000, 0.0000000, 0.0000000, 0.0000000, 0.0156250, 0.0000000, 0.0000000, 0.0078125, -0.0078125, 0.0078125, 0.0390625, 0.0000000, 0.0390625, -0.0234375, -0.0234375, -0.0468750, 0.0078125, -0.0156250, 0.0546875, -0.0312500, 0.0000000, 0.0000000, 0.0390625, 0.0468750, 0.0312500, 0.0156250, 0.0156250, 0.0625000, -0.0234375, -0.0156250, -0.0078125, 0.0156250, -0.0234375, 0.0234375, 0.0156250, 0.0078125, -0.0468750, 0.0234375, -0.0078125, 0.0000000, 0.0234375, 0.0078125, -0.0234375, -0.0156250, -0.0078125, 0.0312500, 0.0000000, 0.0312500, 0.0078125, -0.0078125, 0.0234375, 0.0078125, 0.0234375, 0.0078125, 0.0000000, -0.0156250, 0.0156250, 0.0156250, 0.0234375, -0.0468750, -0.0390625, 0.0156250, 0.0000000, -0.0781250, -0.0390625, -0.0078125, -0.0312500, -0.0234375, 0.0078125, -0.0234375, -0.0078125, 0.0859375, -0.0234375, 0.0000000, 0.0390625, 0.0468750, -0.0312500, -0.0156250, 0.0000000, -0.0078125, 0.0156250, -0.0312500, -0.0390625, 0.0156250, -0.0234375, -0.0156250, -0.0156250, 0.0234375, 0.0234375, 0.0000000, -0.0156250, 0.0156250, 0.0078125, 0.0000000, 0.0312500, -0.0078125, 0.0156250, -0.0156250, -0.0156250, 0.0546875, 0.0156250, 0.0078125, -0.0156250, -0.0156250, 0.0078125, -0.0234375, 0.0078125, -0.0156250, -0.0625000, -0.0156250, 0.0234375, 0.0156250, 0.0156250, 0.0234375, 0.0156250, 0.0234375, 0.0000000, 0.0156250, -0.0078125, -0.0312500, -0.0156250, 0.0000000, -0.0078125, -0.0312500, -0.0156250, 0.0156250, -0.0078125, -0.0156250, -0.0078125, 0.0000000, 0.0156250, -0.0078125, -0.0078125, 0.0156250, 0.0156250, 0.0000000, -0.0234375, 0.0078125, 0.0312500, -0.0078125, 0.0234375, -0.0234375, -0.0156250, -0.0546875, 0.0156250, -0.0156250, 0.0234375, -0.0468750, 0.0156250, -0.0156250, 0.0000000, -0.0390625, 0.0546875, 0.0156250, 0.0078125, 0.0234375, 0.0468750, -0.0078125, 0.0468750, 0.0000000, -0.0078125, 0.0078125, 0.0078125, 0.0078125, 0.0078125, 0.0000000, -0.0390625, 0.0000000, -0.0156250, -0.0234375, -0.0078125, -0.0156250, 0.0000000, 0.0234375, 0.0000000, 0.0078125, 0.0156250, 0.0078125, -0.0078125, 0.0234375, 0.0156250, 0.0078125, -0.0156250, -0.0625000, 0.0234375, 0.0234375, -0.0312500, -0.0234375, -0.0078125, -0.0156250, 0.0000000, -0.0078125, 0.0390625, -0.0078125, 0.0468750, -0.0078125, 0.0156250, -0.0234375, -0.0156250, 0.0390625, -0.0468750, 0.0000000, 0.0234375, -0.0078125, 0.0234375, 0.0234375, -0.0078125, -0.0156250, 0.0234375, -0.0234375, -0.0078125, 0.0156250, -0.0156250, 0.0000000, 0.0234375, 0.0156250, 0.0546875, -0.0078125, 0.0468750, 0.0234375, -0.0312500, -0.0078125, 0.0000000, -0.0078125, 0.0156250, -0.0156250, 0.0000000, 0.0000000, 0.0156250, 0.0156250, 0.0000000, 0.0000000, 0.0312500, -0.0390625, 0.0703125, 0.0078125, 0.0000000, 0.0078125, -0.0078125, -0.0078125, 0.0156250, 0.0312500, 0.0156250, 0.0468750, 0.0156250, 0.0156250, -0.0234375, -0.0078125, 0.0312500, 0.0000000, -0.0156250, -0.0156250, -0.0078125, 0.0468750, 0.0000000, -0.0390625, -0.0078125, 0.0234375, 0.0078125, -0.0156250, 0.0000000, -0.0156250, 0.0312500, -0.0078125, 0.0000000, -0.0078125, 0.0312500, 0.0000000, -0.0156250, 0.0312500, -0.0156250, 0.0078125, 0.0000000, 0.0234375, 0.0078125, 0.0000000, -0.0156250, 0.0000000, 0.0000000, -0.0234375, 0.0234375, -0.0156250, -0.0078125, -0.0078125, -0.0156250, 0.0312500, 0.0312500, 0.0000000, 0.0156250, -0.0468750, -0.0234375, 0.0078125, 0.0000000, 0.0156250, 0.0156250, 0.0078125, -0.0234375, -0.0078125, -0.0312500, 0.0234375, 0.0078125, -0.0312500, 0.0156250, 0.0468750, -0.0312500, 0.0000000, -0.0546875, -0.0546875, 0.0000000, -0.0078125, 0.0078125, -0.0234375, 0.0078125, 0.0234375, 0.0390625, 0.0000000, 0.0078125, -0.0390625, 0.0078125, 0.0078125, 0.0234375, 0.0312500, 0.0234375, 0.0234375, -0.0078125, 0.0000000, 0.0156250, -0.0781250, -0.0156250, -0.0078125, -0.0312500, -0.0156250, 0.0078125, 0.0078125, 0.0000000, 0.0078125, 0.0000000, 0.0234375, -0.0234375, -0.0078125, -0.0234375, 0.0312500, -0.0312500, 0.0390625, -0.0156250, 0.0234375, 0.0234375, 0.0078125, -0.0468750, 0.0078125, -0.0156250, 0.0000000, -0.0078125, 0.0156250, 0.0156250, -0.0390625, -0.0078125, -0.0078125, 0.0234375, 0.0156250, 0.0000000, 0.0078125, -0.0078125, 0.0078125, 0.0078125, -0.0312500, -0.0234375, 0.0312500, -0.0078125, 0.0000000, -0.0312500, -0.0546875, -0.0078125, 0.0078125, 0.0000000, -0.0312500, 0.0156250, 0.0234375, 0.0000000, 0.0156250, 0.0234375, -0.0078125, -0.0078125, -0.0156250, 0.0234375, 0.0000000, -0.0078125, -0.0156250, -0.0078125, 0.0234375, 0.0078125, 0.0078125, -0.0234375, -0.0078125, -0.0078125, 0.0234375, 0.0000000, 0.0156250, 0.0234375, -0.0312500, -0.0078125, 0.0078125, 0.0390625, -0.0156250, -0.0156250, 0.0078125, 0.0156250, 0.0156250, -0.0234375, -0.0078125, -0.0156250, 0.0156250, -0.0234375, 0.0078125, -0.0156250, -0.0156250, 0.0000000, 0.0703125, -0.1093750, -0.0156250, -0.0156250, -0.0234375, 0.0078125, 0.0078125, -0.0078125, -0.0234375, -0.0156250, 0.0000000, 0.0000000, 0.0156250, 0.0000000, 0.0468750, 0.0000000, 0.0078125, 0.0000000, -0.0312500, 0.0468750, -0.0234375, 0.0078125, 0.0390625, -0.0078125, -0.0156250, -0.0156250, 0.0000000, -0.0156250, -0.0234375, 0.0000000, -0.0390625, -0.0546875, 0.0000000, 0.0546875, -0.0156250, -0.0156250, 0.0000000, 0.0000000, 0.0000000, 0.0156250, -0.0234375, -0.0468750, 0.0234375, -0.0156250, 0.0156250, 0.0234375, 0.0078125, -0.0234375, -0.0156250, -0.0312500, -0.0156250, 0.0156250, 0.0000000, -0.0312500, -0.0078125, -0.0312500, 0.0078125, -0.0078125, 0.0000000, 0.0390625, 0.0000000, -0.0234375, -0.0156250, -0.0156250, 0.0000000, 0.0000000, 0.0000000, 0.0000000, -0.0078125, -0.0078125, -0.0078125, -0.0468750, 0.0156250, 0.0390625, -0.0234375, -0.0156250, -0.0078125, 0.0000000, -0.0078125, 0.0000000, -0.0781250, -0.0312500, -0.0078125, -0.0234375, 0.0000000, 0.0000000, 0.0000000, -0.0078125, 0.0078125, -0.0156250, -0.0078125, -0.0078125, 0.0000000, -0.0156250, 0.0078125, 0.0078125, -0.0156250, 0.0078125, 0.0078125, -0.0156250, 0.0000000, -0.0859375, 0.0078125, 0.0156250, -0.0078125, -0.0312500, -0.0156250, 0.0078125, 0.0000000, 0.0000000, 0.0000000, -0.0078125, -0.0078125, 0.0312500, -0.0234375, 0.0156250, 0.0078125, 0.0078125, 0.0000000, -0.0234375, -0.0156250, -0.0078125, 0.0312500, 0.0000000, 0.0078125, 0.0000000, 0.0781250, 0.0000000, -0.0078125, 0.0156250, 0.0546875, 0.0156250, -0.0156250, 0.0000000, 0.0234375, -0.0078125, 0.0234375, -0.0078125, 0.0156250, -0.0156250, -0.0078125, 0.0078125, 0.0234375, 0.0000000, -0.0234375, -0.0546875, -0.0859375, 0.0078125, -0.0156250, 0.0000000, 0.0468750, -0.0234375, -0.0390625, -0.0390625, 0.0234375, 0.0078125, -0.0625000, 0.0078125, 0.0156250, -0.0390625, 0.0078125, 0.0078125, 0.0390625, -0.0078125, -0.0156250, 0.0000000, -0.0546875, -0.0468750, 0.0000000, -0.0312500, -0.0468750, 0.0156250, 0.0312500, 0.0078125, -0.0078125, -0.0078125, 0.0156250, -0.0390625, -0.0156250, 0.0000000, 0.0000000, -0.0078125, -0.0312500, -0.0625000, 0.0156250, -0.0234375, -0.0156250, 0.0078125, 0.0000000, 0.0000000, 0.0156250, -0.0078125, -0.0078125, 0.0000000, 0.0234375, 0.0000000, 0.0000000, 0.0156250, 0.0078125, -0.0078125, 0.0156250, 0.0000000, -0.0078125, 0.0078125, 0.0000000, -0.0156250, 0.0312500, 0.0000000, 0.0312500, -0.0312500, -0.0156250, -0.0156250, -0.0078125, 0.0000000, 0.0078125, -0.0234375, 0.0156250, 0.0000000, -0.0312500, 0.0078125, -0.0468750, -0.0390625, 0.0390625, -0.0078125, -0.0078125, 0.0078125, 0.0000000, 0.0000000, 0.0078125, -0.0625000, -0.0078125, 0.0546875, -0.0078125, 0.0000000, 0.0078125, -0.0312500, 0.0234375, 0.0234375, -0.0390625, -0.0156250, 0.0156250, -0.0546875, 0.0156250, 0.0234375, -0.0078125, -0.0390625, -0.0390625, 0.0000000, -0.0312500, -0.0312500, 0.0078125, -0.0234375, -0.0078125, 0.0156250, 0.0234375, 0.0000000, -0.0468750, -0.0078125, 0.0000000, 0.0312500, 0.0390625, 0.0000000, 0.0156250, 0.0390625, 0.0234375, -0.0234375, 0.0156250, 0.0156250, 0.0078125, -0.0078125, -0.0078125, -0.0078125, 0.0078125, -0.0390625, 0.0156250, -0.0468750, 0.0000000, 0.0078125, -0.0078125, -0.0078125, -0.0156250, 0.0078125, -0.0078125, 0.0156250, 0.0000000, 0.0078125, -0.0078125, -0.0156250, 0.0078125, -0.0156250, 0.0234375, -0.0312500, 0.0156250, 0.0000000, -0.0312500, 0.0078125, 0.0156250, -0.0546875, -0.0468750, 0.0156250, -0.0078125, -0.0078125, 0.0078125, 0.0000000, 0.0156250, 0.0000000, -0.0078125, -0.0234375, 0.0000000, -0.0156250, -0.0234375, -0.0078125, 0.0000000, -0.0312500, 0.0000000, -0.0312500, 0.0156250, -0.0078125, -0.0078125, -0.0468750, 0.0078125, 0.0078125, -0.0468750, -0.0234375, -0.0156250, 0.0234375, 0.0078125, 0.0000000, -0.0390625, 0.0234375, 0.0078125, 0.0156250, -0.0312500, 0.0078125, -0.0156250, -0.0234375, -0.0312500, -0.0234375, 0.0000000, 0.0000000, -0.0468750, -0.0078125, -0.0234375, 0.0078125, 0.0156250, -0.0078125, 0.0000000, 0.0078125, -0.0468750, -0.0234375, -0.0156250, 0.0078125, -0.0156250, -0.0078125, -0.0234375, -0.0625000, 0.0312500, 0.0625000, 0.0078125, -0.0234375, -0.0546875, -0.0078125, 0.0000000, 0.0390625, 0.0234375, 0.0078125, 0.0234375, -0.0312500, 0.0000000, 0.0000000, 0.0156250, 0.0390625, 0.0000000, -0.0546875, -0.0156250, -0.0468750, -0.0078125, -0.0078125, -0.0546875, 0.0390625, -0.0156250, -0.0312500, -0.0312500, -0.0078125, -0.0468750, -0.0156250, -0.0078125, -0.0468750, 0.0390625, 0.0234375, -0.0078125, 0.0546875, -0.0156250, 0.0000000, 0.0000000, -0.0078125, -0.0390625, -0.0078125, 0.0000000, 0.0312500, -0.0312500, -0.0390625, 0.0078125, -0.0156250, -0.0156250, -0.0078125, 0.0468750, -0.0468750, -0.0156250, -0.0156250, 0.0078125, -0.0234375, 0.0390625, 0.0000000, 0.0312500, -0.0390625, 0.0000000, 0.0859375, -0.0078125, -0.0234375, 0.0000000, 0.0000000, 0.0156250, 0.0312500, 0.0000000, -0.0468750, -0.0156250, 0.0234375, 0.0156250, 0.0312500, 0.0000000, -0.0078125, 0.0000000, -0.0156250, -0.0156250, -0.0234375, -0.0078125, 0.0078125, -0.0234375, -0.0781250, -0.0078125, -0.0156250, -0.0468750, 0.0234375, 0.0312500, -0.0078125, 0.0156250, -0.0234375, 0.0156250, 0.0000000, -0.0546875, 0.0000000, -0.0078125, -0.0078125, 0.0078125, -0.0312500, 0.0000000, 0.0156250, 0.0234375, -0.0312500, 0.0156250, -0.0234375, -0.0625000, -0.0156250, -0.0703125, 0.0078125, 0.0390625, -0.0234375, -0.0468750, 0.0156250, 0.0000000, 0.0000000, -0.0156250, 0.0156250, 0.0078125, 0.0078125, -0.0390625, 0.0078125, -0.0468750, 0.0000000, -0.0156250, 0.0156250, 0.0000000, -0.0312500, 0.0468750, 0.0234375, 0.0000000, -0.0234375, -0.0234375, -0.0156250, -0.0078125, 0.0312500, -0.0156250, 0.0156250, 0.0546875, -0.0390625, 0.0078125, -0.1015625, 0.0078125, 0.0078125, -0.0156250, 0.0078125, 0.0312500, 0.0078125, 0.0156250, -0.0234375, -0.0390625, -0.0156250, 0.0000000, -0.0859375, -0.0390625, 0.0000000, -0.0625000, 0.0234375, -0.0156250, -0.0703125, 0.0859375, 0.0078125, -0.0078125, -0.0078125, -0.0078125, -0.0312500, 0.0000000, 0.0000000, -0.0390625, 0.0078125, 0.0000000, 0.0078125, 0.0078125, 0.0312500, 0.0859375, 0.0078125, 0.0000000, 0.0078125, 0.0078125, -0.0625000, 0.0390625, -0.0625000, 0.0312500, -0.0078125, 0.0390625, -0.0078125, 0.0234375, -0.0078125, 0.0078125, 0.0078125, 0.0078125, -0.0234375, 0.0078125, 0.0000000, -0.0312500, -0.0156250, 0.0000000, -0.0078125, -0.0625000, 0.0312500, -0.0781250, -0.0156250, 0.0000000, 0.0000000, 0.0000000, 0.0234375, -0.0078125, -0.0234375, -0.0468750, 0.0156250, -0.0156250, -0.0156250, -0.0156250, -0.0156250, -0.0156250, 0.0078125, 0.0078125, 0.0156250, 0.0078125, 0.0000000, -0.0078125, -0.0078125, 0.0078125, 0.0078125, 0.0156250, -0.0078125, 0.0000000, -0.0312500, 0.0078125, -0.0156250, 0.0000000, -0.0156250, 0.0156250, 0.0078125, -0.0156250, 0.0000000, 0.0000000, 0.0078125, 0.0312500, 0.0078125, -0.0234375, 0.0078125, 0.0156250, -0.0390625, -0.0078125, 0.0000000, -0.0156250, 0.0000000, -0.0156250, -0.0078125, -0.0234375, 0.0078125, 0.0000000, 0.0156250, 0.0078125, 0.0000000, 0.0234375, 0.1171875, -0.0078125, -0.0078125, -0.0234375, -0.0546875, -0.0078125, 0.0078125, 0.0000000, 0.0156250, -0.0078125, 0.0078125, 0.0000000, 0.0000000, 0.0000000, -0.0078125, 0.0000000, 0.0000000, 0.0000000, -0.0078125, 0.0000000, 0.0000000, 0.0000000, -0.0156250, 0.0000000, -0.0078125, 0.0000000, 0.0000000, 0.0078125, 0.0078125, 0.0234375, 0.0078125, 0.0000000, 0.0078125, 0.0000000, 0.0000000, 0.0234375, 0.0078125, 0.0000000, -0.0156250, 0.0156250, -0.0078125, 0.0234375, 0.0078125, -0.0078125, 0.0000000, 0.0000000, 0.0000000, 0.0000000, 0.0000000, 0.0234375, 0.0078125, 0.0078125, -0.0078125, 0.0078125, -0.0156250, 0.0078125, 0.0000000, -0.0078125, 0.0000000, 0.0078125, -0.0078125, 0.0078125, 0.0000000, 0.0000000, 0.0000000, 0.0156250, 0.0000000, 0.0000000, 0.0078125, 0.0000000, 0.0156250, 0.0078125, 0.0078125, 0.0000000, -0.0078125, 0.0000000, 0.0000000, 0.0000000, 0.0000000, -0.0078125, 0.0078125, -0.0078125, 0.0078125, 0.0000000, 0.0000000, 0.0078125, 0.0000000, -0.0078125, 0.0000000, 0.0000000, 0.0078125, 0.0000000, 0.0000000, -0.0156250, 0.0000000, 0.0000000, 0.0078125, 0.0078125, 0.0156250, -0.0078125, -0.0078125, 0.0234375, -0.0078125, 0.0156250, -0.0156250, -0.0078125, 0.0000000, 0.0000000, 0.0000000, 0.0078125, -0.0078125, 0.0078125, 0.0000000, -0.0078125, 0.0078125, 0.0000000, 0.0000000, -0.0156250, 0.0000000, 0.0078125, 0.0078125, 0.0000000, 0.0000000, -0.0078125, 0.0000000, -0.0156250, 0.0078125, 0.0234375, 0.0000000, 0.0000000, 0.0078125, 0.0000000, 0.0000000, 0.0000000, -0.0078125, -0.0078125, 0.0078125, -0.0078125, 0.0078125, 0.0000000, 0.0078125, 0.0000000, 0.0000000, -0.0078125, 0.0156250, 0.0156250, 0.0078125, -0.0156250, -0.0156250, 0.0156250, -0.0078125, 0.0000000, -0.0078125, 0.0234375, 0.0000000, 0.0156250, -0.0234375, 0.0000000, 0.0156250, 0.0078125, 0.0000000, 0.0000000, -0.0078125, 0.0078125, 0.0156250, 0.0000000, -0.0078125, 0.0312500, 0.0000000, 0.0156250, 0.0078125, -0.0078125, -0.0078125, 0.0078125, -0.0156250, 0.0000000, 0.0000000, 0.0000000, 0.0156250, 0.0078125, -0.0078125, -0.0156250, -0.0078125, 0.0156250, 0.0000000, -0.0156250, 0.0156250, 0.0000000, 0.0078125, 0.0000000, -0.0078125, -0.0078125, -0.0078125, 0.0078125, 0.0000000, -0.0078125, 0.0000000, 0.0078125, 0.0078125, 0.0156250, 0.0000000, -0.0078125, 0.0078125, -0.0078125, 0.0000000, -0.0078125, 0.0078125, -0.0078125, 0.0078125, -0.0078125, -0.0078125, 0.0000000, 0.0000000, 0.0078125, 0.0000000, 0.0000000, -0.0078125, 0.0000000, -0.0078125, 0.0000000, 0.0000000, 0.0000000, -0.0234375, -0.0156250, 0.0000000, 0.0000000, 0.0000000, 0.0000000, 0.0000000, -0.0078125, 0.0000000, 0.0000000, 0.0000000, -0.0234375, -0.0078125, 0.0078125, 0.0078125, 0.0234375, 0.0000000, 0.0000000, 0.0000000, 0.0000000, 0.0000000, 0.0000000, 0.0000000, -0.0078125, -0.0078125, 0.0078125, -0.0078125, -0.0078125, 0.0000000, -0.0078125, -0.0078125, 0.0000000, 0.0078125, 0.0000000, -0.0078125, 0.0000000, 0.0000000, -0.0078125, 0.0078125, 0.0000000, 0.0000000, -0.0078125, 0.0078125, -0.0156250, 0.0078125, 0.0000000, -0.0078125, 0.0000000, 0.0000000, -0.0078125, -0.0156250, -0.0156250, 0.0234375, 0.0000000, 0.0000000, 0.0078125, -0.0156250, -0.0078125, -0.0078125, 0.0156250, 0.0000000, -0.0156250, -0.0078125, -0.0078125, 0.0078125, 0.0156250, 0.0000000, 0.0000000, 0.0156250, 0.0078125, 0.0078125, 0.0000000, -0.0078125, 0.0156250, 0.0000000, 0.0000000, 0.0000000, 0.0000000, -0.0078125, 0.0156250, -0.0156250, 0.0078125, -0.0078125, 0.0000000, 0.0156250, 0.0156250, 0.0000000, 0.0000000, 0.0078125, -0.0156250, 0.0000000, -0.0078125, 0.0234375, 0.0000000, 0.0156250, -0.0078125, 0.0000000, 0.0000000, 0.0000000, 0.0000000, 0.0000000, 0.0000000, -0.0156250, -0.0078125, 0.0000000, 0.0078125, 0.0000000, 0.0000000, -0.0078125, -0.0078125, 0.0234375, 0.0000000, 0.0078125, 0.0156250, -0.0156250, -0.0078125, 0.0000000, 0.0000000, 0.0000000, 0.0156250, -0.0156250, 0.0000000, -0.0156250, -0.0078125, 0.0078125, 0.0000000, 0.0000000, -0.0078125, 0.0000000, 0.0000000, 0.0000000, 0.0000000, 0.0000000, 0.0000000, 0.0078125, 0.0000000, 0.0078125, -0.0078125, -0.0078125, 0.0000000, 0.0078125, 0.0000000, 0.0234375, 0.0234375, 0.0000000, 0.0078125, 0.0000000, 0.0156250, 0.0000000, 0.0000000, -0.0078125, 0.0000000, 0.0000000, 0.0078125, 0.0156250, 0.0000000, 0.0000000, 0.0000000, 0.0078125, 0.0078125, 0.0078125, -0.0234375, -0.0078125, 0.0000000, -0.0078125, 0.0078125, 0.0156250, 0.0000000, 0.0000000, 0.0000000, -0.0078125, 0.0156250, -0.0156250, 0.0000000, 0.0000000, -0.0078125, 0.0078125, 0.0000000, 0.0078125, -0.0234375, 0.0156250, -0.0078125, -0.0078125, -0.0078125, 0.0078125, 0.0000000, -0.0078125, -0.0156250, 0.0000000, 0.0000000, -0.0078125, -0.0078125, -0.0078125, -0.0156250, 0.0078125, 0.0000000, 0.0000000, 0.0234375, 0.0000000, 0.0000000, 0.0078125, -0.0156250, 0.0000000, -0.0078125, 0.0000000, 0.0000000, 0.0000000, -0.0078125, 0.0000000, 0.0000000, 0.0000000, 0.0078125, -0.0156250, 0.0000000, 0.0078125, -0.0078125, 0.0000000, -0.0078125, 0.0078125, 0.0078125, -0.0078125, 0.0078125, -0.0078125, 0.0000000, -0.0078125, 0.0078125, 0.0000000, 0.0000000, 0.0078125, 0.0000000, 0.0078125, 0.0000000, -0.0078125, 0.0078125, -0.0156250, 0.0000000, -0.0078125, 0.0000000, 0.0078125, -0.0078125, -0.0078125, 0.0000000, -0.0078125, -0.0156250, -0.0156250, 0.0000000, -0.0078125, -0.0234375, 0.0000000, 0.0000000, -0.0078125, 0.0000000, -0.0156250, 0.0078125, 0.0078125, -0.0156250, -0.0078125, -0.0078125, 0.0000000, 0.0000000, 0.0156250, -0.0078125, -0.0156250, 0.0078125, 0.0078125, -0.0156250, 0.0156250, -0.0078125, -0.0078125, 0.0078125, -0.0078125, 0.0000000, -0.0078125, -0.0234375, 0.0078125, -0.0234375, 0.0156250, 0.0000000, 0.0000000, 0.0000000, 0.0000000, 0.0000000, 0.0000000, 0.0000000, 0.0078125, -0.0078125, -0.0078125, 0.0000000, 0.0000000, 0.0156250, 0.0000000, 0.0000000, -0.0078125, -0.0234375, 0.0156250, 0.0000000, -0.0078125, 0.0000000, 0.0078125, 0.0000000, -0.0156250, 0.0078125, 0.0078125, 0.0000000, 0.0000000, 0.0078125, -0.0234375, 0.0078125, -0.0156250, -0.0078125, -0.0078125, 0.0000000, 0.0078125, 0.0078125, 0.0078125, -0.0078125, 0.0078125, -0.0156250, -0.0078125, 0.0000000, -0.0312500, -0.0234375, 0.0078125, 0.0078125, -0.0156250, -0.0234375, 0.0000000, 0.0078125, -0.0156250, 0.0000000, 0.0078125, -0.0078125, 0.0078125, -0.0156250, 0.0078125, -0.0156250, -0.0078125, -0.0078125, 0.0000000, 0.0000000, -0.0078125, 0.0000000, 0.0078125, -0.0078125, 0.0000000, -0.0078125, 0.0156250, 0.0000000, 0.0156250, 0.0078125, 0.0000000, 0.0078125, -0.0078125, 0.0000000, 0.0000000, 0.0000000, 0.0156250, 0.0078125, 0.0000000, 0.0234375, -0.0156250, 0.0000000, 0.0078125, 0.0000000, -0.0156250, 0.0000000, 0.0078125, -0.0078125, 0.0000000, 0.0000000, 0.0000000, 0.0000000, -0.0078125, 0.0078125, -0.0078125, -0.0156250, 0.0078125, 0.0000000, -0.0078125, 0.0078125, -0.0078125, 0.0078125, 0.0078125, -0.0078125, -0.0078125, -0.0078125, 0.0078125, 0.0156250, 0.0000000, -0.0078125, 0.0000000, -0.0078125, 0.0078125, 0.0000000, 0.0078125, -0.0078125, -0.0078125, 0.0078125, -0.0078125, -0.0156250, -0.0078125, -0.0078125, 0.0078125, 0.0000000, 0.0000000, 0.0078125, 0.0078125, 0.0078125, 0.0078125, -0.0078125, -0.0078125, 0.0078125, 0.0078125, -0.0078125, -0.0078125, 0.0078125, 0.0000000, 0.0000000, 0.0000000, 0.0078125, -0.0078125, -0.0156250, 0.0078125, 0.0000000, -0.0078125, 0.0000000, 0.0078125, 0.0000000, 0.0000000, 0.0078125, 0.0156250, 0.0078125, 0.0156250, 0.0156250, -0.0312500, 0.0156250, 0.0156250, 0.0000000, 0.0000000, 0.0078125, 0.0156250, 0.0078125, 0.0156250, -0.0078125, 0.0078125, -0.0078125, 0.0078125, -0.0234375, -0.0156250, -0.0078125, 0.0078125, 0.0156250, 0.0000000, -0.0312500, 0.0000000, 0.0078125, -0.0078125, 0.0078125, 0.0078125, 0.0078125, 0.0000000, -0.0156250, 0.0078125, 0.0000000, -0.0078125, 0.0000000, 0.0078125, -0.0078125, 0.0000000, 0.0078125, 0.0000000, 0.0078125, 0.0000000, 0.0078125, 0.0156250, 0.0078125, 0.0000000, 0.0078125, -0.0078125, 0.0078125, 0.0000000, 0.0078125, 0.0078125, -0.0156250, 0.0078125, 0.0078125, 0.0078125, 0.0078125, -0.0078125, -0.0078125, 0.0234375, 0.0078125, 0.0000000, 0.0078125, 0.0156250, 0.0000000, -0.0156250, 0.0312500, -0.0078125, 0.0000000, 0.0078125, 0.0078125, -0.0078125, -0.0078125, 0.0000000, 0.0156250, -0.0156250, 0.0078125, 0.0000000, 0.0156250, 0.0078125, -0.0234375, 0.0000000, 0.0000000, 0.0078125, 0.0078125, -0.0078125, -0.0078125, 0.0078125, -0.0078125, 0.0078125, 0.0000000, 0.0000000, -0.0156250, 0.0000000, -0.0078125, 0.0000000, 0.0000000, 0.0000000, 0.0000000, 0.0078125, -0.0156250, -0.0078125, 0.0078125, 0.0078125, 0.0078125, 0.0078125, 0.0078125, -0.0312500, 0.0000000, 0.0078125, 0.0000000, 0.0000000, -0.0156250, -0.0078125, -0.0312500, 0.0078125, 0.0078125, -0.0156250, 0.0000000, 0.0078125, 0.0078125, 0.0078125, 0.0078125, 0.0078125, 0.0078125, 0.0000000, 0.0000000, 0.0000000, 0.0000000, -0.0078125, 0.0000000, -0.0078125, -0.0156250, -0.0078125, -0.0234375, -0.0234375, -0.0234375, 0.0000000, -0.0078125, -0.0078125, 0.0000000, 0.0000000, -0.0078125, -0.0078125, 0.0078125, 0.0078125, 0.0000000, 0.0000000, 0.0078125, 0.0156250, -0.0078125, -0.0078125, 0.0000000, -0.0156250, -0.0234375, 0.0000000, 0.0000000, -0.0078125, -0.0234375, -0.0156250, 0.0000000, 0.0000000, -0.0078125, 0.0000000, 0.0000000, 0.0000000, -0.0078125, -0.0156250, -0.0078125, -0.0078125, 0.0156250, 0.0000000, -0.0078125, -0.0156250, 0.0000000, 0.0000000, 0.0000000, -0.0156250, 0.0000000, -0.0078125, -0.0078125, -0.0156250, 0.0000000, 0.0078125, 0.0000000, 0.0000000, -0.0078125, 0.0156250, 0.0078125, -0.0078125, 0.0000000, -0.0078125, -0.0234375, -0.0078125, 0.0000000, -0.0078125, 0.0234375, -0.0078125, 0.0000000, -0.0156250, 0.0078125, -0.0078125, 0.0000000, 0.0156250, 0.0000000, -0.0156250, 0.0000000, 0.0078125, 0.0156250, -0.0234375, -0.0234375, 0.0078125, 0.0000000, -0.0078125, -0.0156250, -0.0078125, -0.0078125, -0.0078125, -0.0078125, 0.0078125, 0.0000000, -0.0156250, -0.0078125, -0.0078125, 0.0000000, -0.0156250, -0.0078125, 0.0000000, 0.0078125, -0.0156250, 0.0000000, 0.0078125, -0.0078125, 0.0000000, -0.0156250, 0.0156250, -0.0078125, 0.0000000, -0.0156250, 0.0000000, 0.0078125, 0.0000000, 0.0156250, -0.0156250, 0.0000000, -0.0078125, -0.0234375, 0.0000000, 0.0000000, 0.0078125, 0.0000000, -0.0078125, -0.0156250, -0.0078125, 0.0000000, 0.0000000, 0.0000000, -0.0078125, 0.0000000, -0.0078125, -0.0156250, -0.0156250, -0.0234375, -0.0234375, -0.0078125, 0.0000000, 0.0000000, 0.0000000, -0.0078125, 0.0000000, -0.0078125, 0.0078125, 0.0000000, 0.0078125, 0.0000000, 0.0078125, 0.0000000, 0.0078125, 0.0000000, -0.0078125, 0.0000000, -0.0234375, -0.0156250, 0.0000000, 0.0000000, 0.0000000, -0.0156250, 0.0000000, 0.0000000, 0.0000000, -0.0234375, 0.0078125, -0.0156250, -0.0078125, 0.0000000, 0.0000000, 0.0000000, -0.0078125, -0.0156250, 0.0000000, -0.0078125, -0.0078125, 0.0000000, -0.0312500, 0.0000000, -0.0234375, 0.0000000, 0.0000000, 0.0000000, -0.0078125, 0.0000000, 0.0156250, 0.0078125, -0.0078125, -0.0078125, 0.0078125, 0.0000000, -0.0156250, -0.0078125, 0.0078125, -0.0234375, 0.0078125, 0.0078125, 0.0000000, 0.0000000, 0.0000000, 0.0000000, 0.0078125, -0.0078125, 0.0078125, 0.0000000, 0.0078125, 0.0000000, -0.0078125, 0.0000000, 0.0078125, 0.0078125, -0.0156250, -0.0156250, 0.0000000, 0.0000000, -0.0078125, 0.0000000, 0.0078125, -0.0156250, -0.0156250, -0.0078125, 0.0078125, 0.0156250, -0.0156250, 0.0000000, -0.0078125, 0.0000000, -0.0234375, -0.0156250, 0.0000000, 0.0078125, -0.0156250, 0.0000000, 0.0078125, -0.0078125, 0.0000000, -0.0078125, 0.0156250, -0.0078125, 0.0000000, -0.0234375, 0.0000000, 0.0000000, -0.0078125, -0.0078125, -0.0234375, 0.0000000, 0.0000000, -0.0156250, -0.0078125, 0.0078125, 0.0000000, -0.0078125, 0.0078125, 0.0078125, -0.0078125, 0.0078125, 0.0078125, 0.0078125, -0.0078125, 0.0000000, 0.0078125, 0.0078125, -0.0156250, -0.0078125, -0.0156250, 0.0078125, -0.0078125, 0.0000000, 0.0078125, 0.0000000, 0.0000000, 0.0000000, 0.0156250, 0.0078125, -0.0156250, 0.0078125, 0.0000000, 0.0000000, -0.0078125, 0.0156250, 0.0000000, 0.0078125, -0.0156250, 0.0000000, 0.0000000, 0.0078125, 0.0000000, -0.0078125, 0.0078125, 0.0078125, -0.0078125, -0.0156250, 0.0000000, 0.0078125, -0.0078125, 0.0078125, 0.0234375, 0.0078125, 0.0000000, -0.0156250, 0.0000000, 0.0000000, -0.0234375, 0.0000000, -0.0078125, 0.0078125, -0.0078125, 0.0078125, 0.0000000, 0.0234375, -0.0078125, -0.0078125, 0.0000000, 0.0078125, 0.0078125, 0.0156250, 0.0078125, 0.0000000, -0.0156250, 0.0000000, 0.0078125, -0.0078125, 0.0000000, 0.0000000, -0.0078125, 0.0000000, 0.0000000, 0.0000000, 0.0078125, -0.0078125, 0.0078125, 0.0000000, -0.0078125, 0.0078125, -0.0156250, 0.0078125, 0.0078125, -0.0078125, -0.0156250, -0.0156250, 0.0078125, 0.0000000, 0.0000000, -0.0078125, 0.0078125, 0.0078125, -0.0078125, -0.0078125, -0.0078125, 0.0000000, -0.0078125, 0.0078125, 0.0078125, 0.0078125, -0.0078125, -0.0156250, 0.0000000, 0.0000000, -0.0156250, 0.0000000, 0.0000000, 0.0156250, 0.0000000, 0.0000000, 0.0078125, 0.0000000, 0.0000000, -0.0078125, 0.0000000, 0.0000000, -0.0234375, 0.0078125, -0.0078125, 0.0000000, 0.0000000, -0.0078125, 0.0000000, 0.0000000, 0.0000000, 0.0000000, 0.0000000, 0.0156250, 0.0000000, 0.0156250, -0.0156250, 0.0234375, -0.0156250, 0.0078125, 0.0234375, 0.0156250, 0.0078125, -0.0156250, -0.0078125, 0.0000000, -0.0078125, 0.0078125, 0.0078125, -0.0078125, 0.0078125, -0.0156250, 0.0078125, -0.0546875, 0.0156250, 0.0078125, 0.0078125, 0.0156250, -0.0078125, 0.0078125, 0.0234375, 0.0234375, 0.0390625, -0.0078125, 0.0078125, -0.0156250, 0.0234375, 0.0390625, 0.0234375, 0.0156250, 0.0156250, 0.0312500, 0.0000000, 0.0078125, 0.0000000, 0.0078125, -0.0078125, 0.0000000, 0.0156250, -0.0078125, 0.0156250, 0.0078125, -0.0468750, 0.0078125, -0.0312500, 0.0078125, 0.0156250, 0.0234375, 0.0156250, 0.0078125, -0.0156250, 0.0312500, 0.0312500, -0.0390625, 0.0078125, -0.0078125, 0.0000000, 0.0078125, 0.0390625, 0.0156250, 0.0234375, 0.0312500, 0.0156250, 0.0078125, 0.0312500, 0.0078125, -0.0156250, 0.0156250, 0.0078125, 0.0000000, 0.0234375, 0.0156250, 0.0156250, 0.0000000, 0.0078125, 0.0000000, 0.0000000, 0.0156250, -0.0156250, 0.0156250, 0.0156250, 0.0000000, 0.0078125, 0.0078125, -0.0078125, 0.0000000, 0.0312500, 0.0078125, 0.0234375, -0.0312500, -0.0156250, -0.0156250, 0.0078125, 0.0312500, 0.0390625, 0.0000000, 0.0078125, 0.0000000, 0.0078125, 0.0078125, 0.0156250, 0.0078125, 0.0078125, 0.0078125, -0.0156250, 0.0078125, 0.0078125, 0.0312500, -0.0234375, 0.0156250, 0.0156250, 0.0234375, 0.0000000, 0.0156250, 0.0078125, -0.0156250, -0.0234375, 0.0156250, 0.0312500, 0.0078125, -0.0078125, 0.0000000, -0.0156250, -0.0078125, -0.0234375, -0.0234375, 0.0156250, 0.0078125, 0.0078125, 0.0078125, 0.0000000, -0.0156250, -0.0078125, 0.0156250, 0.0000000, -0.0078125, -0.0234375, 0.0390625, 0.0156250, 0.0078125, 0.0234375, 0.0468750, 0.0000000, 0.0234375, 0.0000000, 0.0000000, 0.0234375, 0.0546875, -0.0078125, -0.0078125, 0.0156250, 0.0156250, -0.0078125, 0.0234375, -0.0078125, 0.0234375, 0.0234375, 0.0078125, 0.0234375, -0.0078125, 0.0078125, 0.0078125, 0.0078125, 0.0468750, 0.0000000, 0.0156250, 0.0078125, 0.0546875, -0.0078125, 0.0312500, -0.0078125, 0.0000000, 0.0546875, -0.0078125, -0.0078125, 0.0078125, 0.0000000, 0.0000000, 0.0078125, 0.0156250, 0.0546875, 0.0156250, 0.0234375, -0.0156250, -0.0234375, -0.0078125, 0.0000000, 0.0000000, 0.0078125, -0.0156250, -0.0078125, -0.0234375, 0.0000000, 0.0078125, 0.0156250, -0.0156250, 0.0234375, 0.0000000, -0.0078125, -0.0078125, 0.0156250, 0.0000000, 0.0234375, 0.0000000, 0.0000000, 0.0000000, -0.0156250, -0.0156250, -0.0078125, -0.0078125, 0.0234375, -0.0078125, -0.0156250, 0.0156250, -0.0156250, 0.0000000, 0.0156250, 0.0390625, -0.0078125, 0.0625000, -0.0078125, 0.0312500, -0.0234375, 0.0000000, 0.0156250, 0.0078125, 0.0312500, -0.0078125, 0.0000000, 0.0078125, 0.0078125, -0.0156250, 0.0390625, 0.0000000, 0.0000000, 0.0000000, 0.0156250, 0.0156250, 0.0390625, 0.0078125, -0.0390625, 0.0078125, 0.0156250, 0.0234375, 0.0000000, -0.0078125, -0.0312500, -0.0156250, 0.0078125, 0.0000000, -0.0156250, 0.0000000, -0.0078125, -0.0156250, 0.0000000, 0.0078125, 0.0156250, -0.0078125, 0.0078125, 0.0078125, 0.0078125, 0.0078125, 0.0156250, 0.0078125, 0.0156250, 0.0078125, -0.0156250, -0.0078125, -0.0078125, 0.0312500, -0.0234375, -0.0156250, 0.0078125, -0.0078125, 0.0312500, -0.0625000, -0.0312500, 0.0000000, -0.0234375, 0.0078125, 0.0156250, -0.0234375, -0.0234375, -0.0312500, -0.0078125, -0.0312500, -0.0156250, -0.0078125, 0.0000000, -0.0156250, -0.0234375, -0.0312500, 0.0312500, -0.0156250, -0.0078125, 0.0156250, -0.0078125, -0.0078125, 0.0390625, 0.0000000, 0.0000000, 0.0156250, -0.0078125, -0.0234375, 0.0078125, 0.0000000, 0.0078125, -0.0390625, -0.0234375, -0.0078125, -0.0156250, -0.0078125, -0.0078125, 0.0000000, -0.0234375, 0.0078125, 0.0078125, -0.0156250, -0.0234375, -0.0234375, -0.0078125, 0.0156250, -0.0312500, 0.0078125, -0.0234375, -0.0078125, -0.0234375, 0.0078125, 0.0000000, -0.0078125, -0.0234375, 0.0000000, 0.0078125, 0.0000000, 0.0156250, -0.0078125, 0.0078125, 0.0078125, -0.0234375, -0.0156250, -0.0156250, -0.0156250, 0.0078125, -0.0156250, -0.0468750, -0.0078125, 0.0000000, 0.0000000, -0.0234375, -0.0156250, -0.0156250, 0.0156250, 0.0000000, 0.0234375, -0.0078125, -0.0078125, 0.0078125, 0.0000000, 0.0000000, -0.0156250, 0.0156250, -0.0156250, -0.0078125, -0.0156250, 0.0234375, 0.0078125, 0.0156250, -0.0312500, 0.0546875, -0.0078125, 0.0156250, 0.0156250, 0.0156250, 0.0078125, -0.0234375, 0.0156250, 0.0078125, -0.0156250, -0.0156250, -0.0234375, -0.0078125, -0.0078125, -0.0234375, -0.0156250, -0.0312500, 0.0078125, -0.0156250, 0.0000000, 0.0078125, 0.0078125, -0.0078125, -0.0234375, -0.0156250, 0.0234375, -0.0234375, 0.0078125, -0.0078125, -0.0078125, 0.0234375, -0.0156250, -0.0312500, -0.0156250, -0.0234375, 0.0078125, 0.0078125, -0.0312500, 0.0234375, 0.0156250, -0.0390625, -0.0078125, 0.0078125, 0.0234375, -0.0078125, -0.0312500, -0.0234375, 0.0312500, -0.0156250, -0.0156250, 0.0078125, -0.0156250, -0.0078125, 0.0078125, -0.0234375, -0.0312500, -0.0156250, -0.0078125, -0.0078125, -0.0312500, -0.0234375, -0.0312500, 0.0312500, -0.0234375, -0.0234375, 0.0156250, -0.0234375, -0.0078125, -0.0078125, -0.0625000, 0.0078125, 0.0234375, 0.0156250, -0.0234375, 0.0312500, -0.0390625, -0.0312500, 0.0234375, 0.0078125, 0.0234375, 0.0078125, -0.0156250, -0.0156250, -0.0390625, -0.0078125, 0.0000000, -0.0234375, -0.0234375, -0.0546875, -0.0156250, -0.0234375, -0.0156250, -0.0234375, -0.0234375, 0.0078125, 0.0156250, -0.0234375, -0.0234375, -0.0078125, -0.0234375, 0.0000000, -0.0078125, 0.0078125, -0.0078125, 0.0000000, -0.0234375, 0.0000000, 0.0156250, 0.0000000, 0.0000000, 0.0312500, 0.0078125, -0.0312500, -0.0156250, -0.0078125, -0.0312500, -0.0234375, -0.0234375, -0.0312500, 0.0156250, 0.0000000, 0.0000000, -0.0156250, 0.0312500, -0.0078125, -0.0078125, -0.0156250, 0.0078125, 0.0000000, -0.0156250, -0.0156250, -0.0234375, 0.0156250, -0.0234375, 0.0078125, -0.0234375, -0.0078125, -0.0156250, 0.0078125, 0.0000000, -0.0156250, -0.0234375, 0.0000000, -0.0078125, -0.0156250, -0.0234375, 0.0000000, 0.0000000, -0.0078125, -0.0156250, 0.0078125, -0.0156250, -0.0234375, -0.0234375, 0.0000000, -0.0234375, 0.0000000, -0.0312500, -0.0234375, 0.0000000, -0.0078125, 0.0156250, 0.0312500, 0.0390625, 0.0078125, 0.0000000, 0.0234375, -0.0078125, -0.0078125, 0.0078125, -0.0156250, 0.0156250, -0.0156250, 0.0156250, 0.0000000, 0.0078125, -0.0078125, -0.0156250, -0.0078125, -0.0156250, -0.0312500, -0.0078125, -0.0078125, -0.0546875, 0.0078125, 0.0078125, 0.0156250, 0.0078125, -0.0468750, -0.0078125, 0.0078125, 0.0078125, -0.0078125, -0.0234375, -0.0078125, 0.0000000, 0.0156250, 0.0234375, -0.0078125, -0.0234375, -0.0078125, 0.0000000, 0.0078125, 0.0000000, -0.0078125, 0.0000000, 0.0234375, 0.0078125, 0.0078125, 0.0234375, -0.0390625, -0.0156250, -0.0078125, 0.0078125, -0.0234375, -0.0078125, -0.0234375, -0.0156250, 0.0234375, 0.0000000, -0.0156250, -0.0156250, 0.0000000, 0.0000000, 0.0000000, -0.0156250, 0.0156250, 0.0000000, -0.0156250, 0.0000000, -0.0078125, -0.0234375, 0.0312500, 0.0390625, 0.0000000, 0.0078125, -0.0078125, 0.0000000, 0.0078125, -0.0078125, 0.0078125, -0.0234375, 0.0234375, 0.0078125, -0.0078125, -0.0078125, 0.0078125, 0.0000000, 0.0234375, 0.0078125, 0.0078125, 0.0234375, 0.0000000, -0.0078125, 0.0468750, 0.0312500, -0.0390625, 0.0000000, -0.0156250, 0.0234375, 0.0078125, -0.0078125, 0.0234375, 0.0000000, -0.0156250, -0.0078125, 0.0078125, -0.0078125, -0.0390625, -0.0078125, 0.0156250, -0.0078125, 0.0078125, 0.0078125, -0.0234375, 0.0156250, 0.0000000, -0.0234375, 0.0156250, -0.0078125, 0.0000000, 0.0000000, -0.0078125, -0.0156250, -0.0156250, -0.0156250, -0.0312500, -0.0156250, -0.0078125, -0.0078125, 0.0078125, -0.0312500, -0.0390625, 0.0000000, -0.0468750, 0.0000000, 0.0000000, -0.0390625, -0.0312500, -0.0390625, 0.0156250, -0.0078125, 0.0000000, -0.0312500, -0.0078125, -0.0234375, 0.0078125, 0.0000000, -0.0156250, -0.0156250, -0.0078125, 0.0000000, -0.0078125, 0.0078125, -0.0234375, -0.0078125, -0.0156250, 0.0000000, -0.0156250, -0.0156250, -0.0078125, -0.0234375, -0.0156250, -0.0078125, 0.0000000, 0.0078125, -0.0312500, -0.0390625, -0.0234375, -0.0078125, -0.0234375, -0.0078125, 0.0156250, -0.0078125, -0.0312500, -0.0546875, -0.0312500, 0.0078125, 0.0078125, -0.0078125, -0.0078125, 0.0000000, -0.0390625, -0.0078125, 0.0000000, 0.0000000, 0.0234375, -0.0078125, 0.0000000, 0.0078125, 0.0000000, 0.0078125, -0.0078125, 0.0000000, -0.0156250, -0.0156250, -0.0156250, -0.0156250, -0.0156250, -0.0156250, -0.0312500, 0.0000000, 0.0078125, -0.0156250, -0.0078125, 0.0312500, -0.0156250, 0.0078125, -0.0078125, 0.0000000, -0.0156250, -0.0078125, 0.0000000, -0.0078125, -0.0078125, -0.0234375, 0.0078125, -0.0156250, 0.0000000, -0.0234375, 0.0156250, 0.0000000, 0.0078125, -0.0234375, 0.0000000, -0.0078125, -0.0234375, 0.0234375, -0.0156250, -0.0078125, -0.0234375, 0.0000000, -0.0078125, 0.0156250, 0.0156250, 0.0312500, 0.0000000, 0.0078125, 0.0078125, 0.0078125, 0.0156250, 0.0078125, 0.0000000, 0.0078125, 0.0156250, 0.0078125, -0.0078125, 0.0078125, -0.0156250, -0.0078125, 0.0156250, 0.0000000, -0.0078125, 0.0156250, 0.0000000, -0.0078125, 0.0078125, 0.0156250, -0.0156250, 0.0156250, -0.0234375, 0.0390625, 0.0234375, 0.0078125, 0.0156250, 0.0312500, 0.0000000, 0.0156250, 0.0078125, 0.0000000, -0.0078125, 0.0156250, 0.0078125, 0.0000000, 0.0390625, -0.0078125, 0.0000000, 0.0078125, 0.0156250, 0.0546875, 0.0234375, -0.0078125, 0.0234375, 0.0468750, 0.0078125, 0.0312500, 0.0156250, 0.0156250, 0.0078125, 0.0000000, -0.0078125, 0.0156250, -0.0078125, -0.0625000, -0.0078125, -0.0078125, 0.0000000, 0.0078125, 0.0234375, 0.0234375, 0.0000000, 0.0156250, -0.0078125, 0.0234375, -0.0078125, 0.0156250, 0.0078125, 0.0234375, 0.0156250, 0.0156250, -0.0312500, 0.0156250, 0.0000000, -0.0078125, -0.0078125, 0.0078125, 0.0078125, 0.0000000, 0.0156250, 0.0156250, 0.0468750, 0.0312500, 0.0078125, 0.0000000, -0.0156250, 0.0078125, 0.0390625, -0.0234375, 0.0000000, -0.0312500, 0.0156250, 0.0546875, -0.0156250, -0.0078125, 0.0078125, -0.0078125, 0.0234375, -0.0156250, 0.0156250, 0.0078125, 0.0000000, 0.0312500, 0.0312500, 0.0312500, 0.0000000, -0.0312500, 0.0156250, 0.0234375, -0.0078125, 0.0000000, -0.0234375, 0.0000000, -0.0234375, 0.0078125, -0.0078125, -0.0156250, -0.0156250, 0.0234375, 0.0078125, 0.0390625, 0.0000000, 0.0156250, 0.0234375, 0.0156250, 0.0234375, 0.0234375, 0.0000000, 0.0156250, 0.0234375, 0.0078125, 0.0000000, -0.0078125, -0.0078125, 0.0390625, -0.0078125, 0.0156250, 0.0078125, 0.0078125, 0.0078125, 0.0312500, -0.0234375, 0.0859375, 0.0312500, 0.0390625, 0.0078125, 0.0078125, 0.0468750, 0.0000000, 0.0312500, 0.0078125, 0.0156250, 0.0390625, 0.0312500, 0.0312500, 0.0312500, 0.0078125, 0.0234375, 0.0625000, -0.0156250, 0.0078125, 0.0234375, -0.0390625, 0.0390625, 0.0156250, -0.0078125, 0.0078125, 0.0156250, -0.0234375, 0.0078125, -0.0312500, 0.0703125, 0.0156250, -0.0234375, 0.0156250, 0.0078125, 0.0078125, 0.0078125, -0.0078125, -0.0312500, -0.0078125, 0.0000000, 0.0078125, 0.0078125, 0.0468750, -0.0078125, 0.0156250, 0.0156250, 0.0234375, 0.0156250, 0.0000000, 0.0546875, 0.0312500, -0.0078125, 0.0234375, 0.0156250, 0.0078125, 0.0156250, 0.0234375, 0.0156250, 0.0078125, -0.0078125, 0.0156250, 0.0156250, 0.0156250, 0.0234375, 0.0000000, -0.0078125, 0.0000000, 0.0078125, 0.0156250, -0.0156250, 0.0234375, 0.0390625, -0.0156250, 0.0078125, -0.0078125, 0.0312500, 0.0078125, 0.0000000, 0.0390625, 0.0000000, 0.0234375, 0.0078125, -0.0078125, 0.0156250, 0.0000000, -0.0312500, 0.0078125, 0.0156250, 0.0156250, 0.0156250, 0.0390625, 0.0234375, -0.0078125, 0.0156250, 0.0078125, -0.0156250, -0.0156250, -0.0156250, 0.0000000, 0.0312500, 0.0156250, -0.0234375, -0.0078125, 0.0078125, 0.0078125, 0.0078125, 0.0078125, 0.0156250, -0.0234375, 0.0078125, -0.0078125, 0.0234375, 0.0000000, 0.0156250, 0.0234375, -0.0078125, 0.0234375, 0.0156250, -0.0078125, -0.0078125, 0.0312500, 0.0078125, -0.0078125, -0.0078125, -0.0078125, 0.0000000, 0.0156250, -0.0234375, 0.0546875, 0.0156250, 0.0000000, 0.0078125, 0.0000000, 0.0078125, -0.0625000, -0.0234375, 0.0078125, -0.0234375, 0.0000000, 0.0078125, 0.0156250, -0.0312500, -0.0156250, -0.0234375, -0.0312500, 0.0000000, -0.0468750, 0.0000000, -0.0234375, 0.0000000, 0.0078125, -0.0312500, -0.0078125, 0.0078125, -0.0312500, 0.0078125, 0.0078125, 0.0234375, 0.0078125, -0.0156250, 0.0312500, -0.0234375, -0.0078125, -0.0078125, -0.0625000, -0.0390625, 0.0078125, -0.0312500, -0.0156250, -0.0078125, 0.0234375, 0.0078125, 0.0078125, -0.0468750, 0.0234375, 0.0078125, -0.0234375, 0.0000000, 0.0312500, -0.0312500, -0.0234375, 0.0078125, 0.0078125, 0.0390625, -0.0078125, -0.0078125, 0.0000000, 0.0078125, 0.0156250, 0.0312500, -0.0078125, 0.0078125, 0.0000000, 0.0000000, -0.0078125, 0.0234375, 0.0078125, -0.0078125, 0.0234375, 0.0078125, -0.0156250, 0.0156250, -0.0312500, -0.0312500, 0.0156250, 0.0078125, -0.0156250, -0.0078125, 0.0078125, -0.0468750, -0.0078125, 0.0000000, 0.0078125, -0.0156250, 0.0078125, 0.0078125, 0.0156250, 0.0078125, 0.0234375, 0.0000000, -0.0312500, 0.0000000, -0.0312500, 0.0156250, 0.0000000, 0.0156250, 0.0000000, 0.0156250, 0.0000000, -0.0156250, 0.0156250, 0.0156250, -0.0156250, -0.0078125, 0.0078125, 0.0078125, -0.0703125, 0.0390625, 0.0078125, 0.0468750, 0.0312500, -0.0156250, 0.0078125, 0.0625000, 0.0000000, -0.0234375, 0.0156250, 0.0156250, 0.0312500, -0.0078125, -0.0078125, 0.0000000, -0.0234375, 0.0156250, 0.0312500, 0.0000000, -0.0625000, 0.0156250, 0.0781250, -0.0078125, 0.0156250, 0.0156250, 0.0781250, -0.0312500, 0.0000000, 0.0546875, 0.0000000, 0.0078125, 0.0468750, -0.0156250, 0.0390625, 0.0546875, 0.0390625, 0.0781250, 0.0234375, 0.0078125, -0.0468750, 0.0390625, -0.0156250, 0.0390625, -0.0234375, 0.0156250, 0.0390625, 0.0312500, 0.0000000, 0.0078125, -0.0156250, 0.0000000, 0.0156250, 0.0156250, 0.0156250, 0.0156250, 0.0234375, 0.0078125, 0.0078125, 0.0234375, -0.0078125, 0.0312500, 0.0625000, 0.0312500, 0.0156250, 0.0312500, 0.0156250, 0.0000000, 0.0312500, 0.0781250, 0.0312500, -0.0234375, 0.0234375, 0.0156250, -0.0078125, 0.0000000, 0.0156250, -0.0156250, 0.0156250, 0.0156250, -0.0078125, 0.0156250, 0.0000000, 0.0078125, 0.0078125, 0.0234375, 0.0234375, 0.0000000, -0.0078125, 0.0000000, 0.0234375, 0.0546875, -0.0156250, 0.0078125, -0.0468750, 0.0078125, 0.0156250, 0.0234375, 0.0156250, 0.0546875, 0.0703125, 0.0234375, 0.0234375, 0.0000000, 0.0078125, -0.0078125, 0.0156250, -0.0078125, 0.0078125, 0.0078125, 0.0078125, 0.0078125, -0.0078125, 0.0234375, 0.0312500, 0.0156250, 0.0078125, 0.0312500, 0.0546875, -0.0156250, 0.0078125, -0.0468750, 0.0000000, 0.0468750, 0.0156250, 0.0546875, 0.0234375, -0.0312500, -0.0078125, 0.0000000, -0.0078125, 0.0312500, -0.0234375, -0.0234375, -0.0156250, 0.0078125, 0.0781250, -0.0234375, 0.0234375, 0.0156250, -0.0156250, -0.0156250, 0.0000000, 0.0312500, 0.0156250, 0.0000000, -0.0234375, -0.0625000, -0.0390625, 0.0078125, 0.0000000, 0.0000000, -0.0078125, -0.0078125, 0.0312500, 0.0078125, 0.0000000, 0.0000000, -0.0156250, -0.0156250, 0.0234375, 0.0156250, 0.0000000, 0.0000000, 0.0000000, 0.0312500, 0.0156250, -0.0156250, -0.0156250, 0.0312500, 0.0078125, 0.0468750, -0.0390625, 0.0000000, -0.0546875, -0.0078125, 0.0000000, 0.0000000, 0.0000000, -0.0234375, 0.0000000, 0.0234375, -0.0078125, -0.0156250, 0.0156250, 0.0156250, -0.0156250, 0.0078125, 0.0625000, -0.0234375, 0.0078125, -0.0078125, 0.0000000, 0.0156250, -0.0078125, -0.0078125, 0.0234375, 0.0078125, -0.0312500, 0.0234375, -0.0234375, -0.0156250, -0.0078125, 0.0156250, 0.0156250, -0.0234375, -0.0156250, 0.0000000, 0.0000000, 0.0234375, 0.0000000, -0.0156250, 0.0156250, 0.0234375, 0.0234375, 0.0000000, -0.0078125, 0.0234375, 0.0078125, -0.0078125, 0.0156250, 0.0078125, -0.0156250, -0.0156250, 0.0234375, 0.0312500, -0.0312500, 0.0312500, 0.0390625, 0.0156250, 0.0156250, -0.0078125, 0.0000000, 0.0468750, 0.0000000, -0.0156250, -0.0312500, -0.0078125, 0.0546875, -0.0078125, 0.0000000, 0.0078125, 0.0156250, 0.0000000, 0.0078125, -0.0234375, -0.0078125, 0.0000000, -0.0078125, 0.0000000, 0.0000000, 0.0390625, 0.0000000, -0.0234375, 0.0000000, 0.0000000, 0.0312500, 0.0078125, -0.0234375, 0.0390625, 0.0312500, -0.0312500, -0.0156250, 0.0156250, 0.0859375, -0.0078125, 0.0156250, 0.0078125, 0.0156250, -0.0390625, -0.0234375, 0.0156250, 0.0468750, -0.0234375, 0.0468750, -0.0390625, 0.0078125, 0.0390625, 0.0078125, -0.0156250, -0.0078125, 0.0000000, -0.0390625, 0.0078125, -0.0234375, 0.0000000, 0.0312500, -0.0234375, -0.0156250, 0.0156250, 0.0000000, 0.0000000, -0.0156250, 0.0312500, 0.0156250, -0.0078125, -0.0312500, 0.0390625, 0.0234375, 0.0234375, 0.0000000, -0.0312500, 0.0156250, -0.0078125, -0.0312500, 0.0000000, -0.0078125, 0.0078125, 0.0000000, 0.0156250, -0.0390625, -0.0156250, 0.0078125, -0.0078125, -0.0390625, -0.0234375, -0.0078125, 0.0390625, 0.0390625, 0.0390625, -0.0156250, 0.0234375, -0.0156250, 0.0390625, 0.0234375, 0.0156250, 0.0000000, 0.0390625, 0.0234375, 0.0078125, 0.0078125, 0.0078125, 0.0078125, 0.0234375, -0.0234375, 0.0156250, 0.0078125, 0.0156250, -0.0156250, -0.0078125, 0.0468750, 0.0234375, 0.0234375, -0.0156250, -0.0156250, 0.0156250, 0.0078125, 0.0390625, 0.0078125, -0.0234375, 0.0078125, 0.0546875, 0.0078125, 0.0156250, -0.0390625, 0.0312500, 0.0390625, 0.0156250, 0.0156250, -0.0156250, 0.0234375, -0.0078125, -0.0312500, -0.0078125, -0.0312500, -0.0234375, 0.0234375, 0.0156250, 0.0078125, -0.0156250, 0.0156250, 0.0234375, 0.0078125, -0.0312500, 0.0156250, 0.0390625, -0.0312500, 0.0000000, 0.0000000, -0.0312500, -0.0156250, 0.0390625, -0.0312500, 0.0156250, -0.0390625, 0.0156250, 0.0078125, 0.0078125, 0.0390625, 0.0000000, -0.0234375, -0.0078125, -0.0078125, -0.0312500, 0.0000000, 0.0000000, -0.0234375, -0.0234375, 0.0156250, 0.0546875, 0.0078125, -0.0078125, -0.0234375, -0.0156250, -0.0781250, -0.0156250, 0.0000000, -0.0156250, -0.0234375, 0.0078125, 0.0390625, -0.0156250, 0.0156250, -0.0078125, -0.0078125, 0.0000000, 0.0234375, 0.0156250, -0.0078125, -0.0468750, -0.0234375, -0.0078125, 0.0312500, -0.0234375, 0.0390625, 0.0234375, -0.0468750, -0.0468750, -0.0078125, 0.0156250, 0.0234375, 0.0000000, 0.0234375, 0.0156250, 0.0078125, 0.0156250, 0.0234375, 0.0156250, -0.0156250, -0.0078125, 0.0312500, -0.0312500, -0.0078125, -0.0234375, -0.0234375, 0.0234375, 0.0078125, 0.0546875, -0.0078125, 0.0312500, 0.0234375, -0.0390625, 0.0156250, -0.0234375, 0.0546875, 0.0234375, 0.0000000, 0.0000000, 0.0078125, -0.0156250, 0.0234375, 0.0156250, -0.0156250, -0.0078125, -0.0234375, 0.0000000, -0.0234375, -0.0312500, 0.0000000, 0.0078125, 0.0078125, 0.0234375, 0.0156250, -0.0078125, 0.0000000, 0.0000000, -0.0390625, 0.0156250, -0.0156250, 0.0234375, -0.0156250, 0.0078125, 0.0312500, -0.0312500, -0.0156250, 0.0234375, 0.0156250, -0.0078125, 0.0000000, -0.0312500, 0.0000000, -0.0078125, -0.0156250, 0.0312500, -0.0234375, -0.0156250, 0.0078125, -0.0156250, 0.0156250, -0.0078125, -0.0078125, 0.0078125, 0.0390625, 0.0156250, -0.0156250, 0.0234375, 0.0078125, -0.0156250, 0.0078125, 0.0390625, 0.0312500, 0.0312500, 0.0234375, 0.0000000, 0.0000000, 0.0156250, 0.0546875, -0.0234375, -0.0078125, 0.0312500, 0.0234375, 0.0156250, 0.0000000, -0.0078125, -0.0078125, -0.0312500, -0.0078125, 0.0390625, 0.0078125, -0.0078125, 0.0390625, -0.0312500, -0.0156250, -0.0078125, -0.0234375, -0.0078125, 0.0156250, -0.0156250, -0.0156250, 0.0234375, 0.0234375, 0.0000000, 0.0078125, 0.0078125, -0.0234375, 0.0312500, -0.0078125, 0.0390625, -0.0078125, -0.0234375, -0.0156250, 0.0000000, 0.0078125, -0.0156250, -0.0390625, 0.0000000, 0.0078125, 0.0312500, -0.0078125, 0.0078125, 0.0156250, 0.0000000, 0.0156250, 0.0390625, 0.0234375, -0.0078125, 0.0078125, -0.0156250, 0.0000000, 0.0078125, -0.0156250, 0.0156250, 0.0312500, 0.0234375, 0.0078125, -0.0078125, 0.0000000, -0.0156250, 0.0234375, 0.0625000, -0.0078125, -0.0390625, 0.0390625, 0.0156250, 0.0156250, -0.0390625, 0.0234375, 0.0156250, -0.0078125, 0.0234375, 0.0078125, -0.0156250, -0.0156250, 0.0000000, 0.0000000, -0.0078125, 0.0000000, -0.0078125, -0.0078125, 0.0234375, 0.0234375, 0.0000000, 0.0000000, 0.0156250, 0.0078125, 0.0234375, 0.0000000, 0.0156250, 0.0000000, 0.0078125, 0.0000000, -0.0625000, -0.0156250, -0.0234375, 0.0000000, -0.0234375, 0.0000000, -0.0078125, 0.0156250, 0.0078125, 0.0000000, 0.0234375, 0.0234375, -0.0156250, 0.0156250, 0.0000000, -0.0156250, 0.0000000, 0.0000000, -0.0312500, 0.0625000, 0.0781250, -0.0078125, 0.0234375, 0.0000000, 0.0000000, -0.0078125, -0.0312500, 0.0234375, -0.0078125, 0.0390625, 0.0156250, 0.0000000, 0.0234375, 0.0000000, -0.0312500, -0.0156250, 0.0390625, 0.0156250, 0.0703125, 0.0000000, 0.0000000, 0.0234375, -0.0156250, -0.0156250, 0.0156250, 0.0468750, 0.0000000, 0.0390625, -0.0078125, 0.0156250, 0.0312500, -0.0312500, 0.0078125, 0.0000000, -0.0390625, -0.0390625, 0.0156250, 0.0078125, -0.0156250, -0.0390625, 0.0078125, -0.0781250, 0.0078125, 